<?xml version="1.0"?>
<MethodSetup Method="BDT::BDTG">
  <GeneralInfo>
    <Info name="TMVA Release" value="4.2.0 [262656]"/>
    <Info name="ROOT Release" value="5.34/26 [336410]"/>
    <Info name="Creator" value="kjung"/>
    <Info name="Date" value="Thu May  7 17:26:05 2015"/>
    <Info name="Host" value="Darwin miniyosemite.local 14.1.0 Darwin Kernel Version 14.1.0: Mon Dec 22 23:10:38 PST 2014; root:xnu-2782.10.72~2/RELEASE_X86_64 x86_64"/>
    <Info name="Dir" value="/Users/kjung/charmJets/pPb/tmvaTesting"/>
    <Info name="Training events" value="398888"/>
    <Info name="TrainingTime" value="5.84833703e+02"/>
    <Info name="AnalysisType" value="Classification"/>
  </GeneralInfo>
  <Options>
    <Option name="V" modified="Yes">False</Option>
    <Option name="VerbosityLevel" modified="No">Default</Option>
    <Option name="VarTransform" modified="No">None</Option>
    <Option name="H" modified="Yes">False</Option>
    <Option name="CreateMVAPdfs" modified="No">False</Option>
    <Option name="IgnoreNegWeightsInTraining" modified="No">False</Option>
    <Option name="NTrees" modified="Yes">850</Option>
    <Option name="MaxDepth" modified="Yes">2</Option>
    <Option name="MinNodeSize" modified="Yes">2%</Option>
    <Option name="nCuts" modified="Yes">20</Option>
    <Option name="BoostType" modified="Yes">Grad</Option>
    <Option name="AdaBoostR2Loss" modified="No">quadratic</Option>
    <Option name="UseBaggedBoost" modified="Yes">True</Option>
    <Option name="Shrinkage" modified="Yes">1.000000e-01</Option>
    <Option name="AdaBoostBeta" modified="No">5.000000e-01</Option>
    <Option name="UseRandomisedTrees" modified="No">False</Option>
    <Option name="UseNvars" modified="No">4</Option>
    <Option name="UsePoissonNvars" modified="No">True</Option>
    <Option name="BaggedSampleFraction" modified="Yes">5.000000e-01</Option>
    <Option name="UseYesNoLeaf" modified="No">True</Option>
    <Option name="NegWeightTreatment" modified="No">ignorenegweightsintraining</Option>
    <Option name="Css" modified="No">1.000000e+00</Option>
    <Option name="Cts_sb" modified="No">1.000000e+00</Option>
    <Option name="Ctb_ss" modified="No">1.000000e+00</Option>
    <Option name="Cbb" modified="No">1.000000e+00</Option>
    <Option name="NodePurityLimit" modified="No">5.000000e-01</Option>
    <Option name="SeparationType" modified="No">giniindex</Option>
    <Option name="DoBoostMonitor" modified="No">False</Option>
    <Option name="UseFisherCuts" modified="No">False</Option>
    <Option name="MinLinCorrForFisher" modified="No">8.000000e-01</Option>
    <Option name="UseExclusiveVars" modified="No">False</Option>
    <Option name="DoPreselection" modified="No">False</Option>
    <Option name="SigToBkgFraction" modified="No">1.000000e+00</Option>
    <Option name="PruneMethod" modified="No">nopruning</Option>
    <Option name="PruneStrength" modified="No">0.000000e+00</Option>
    <Option name="PruningValFraction" modified="No">5.000000e-01</Option>
    <Option name="nEventsMin" modified="No">0</Option>
    <Option name="UseBaggedGrad" modified="No">False</Option>
    <Option name="GradBaggingFraction" modified="No">5.000000e-01</Option>
    <Option name="UseNTrainEvents" modified="No">0</Option>
    <Option name="NNodesMax" modified="No">0</Option>
  </Options>
  <Variables NVar="16">
    <Variable VarIndex="0" Expression="svtxptFrac" Label="svtxptFrac" Title="svtx pt fraction" Unit="units" Internal="svtxptFrac" Type="F" Min="4.20533400e-03" Max="1.12535181e+03"/>
    <Variable VarIndex="1" Expression="svtxm" Label="svtxm" Title="svtx mass" Unit="units" Internal="svtxm" Type="F" Min="3.00070286e-01" Max="1.09212964e+03"/>
    <Variable VarIndex="2" Expression="svtxpt" Label="svtxpt" Title="svtx pt" Unit="units" Internal="svtxpt" Type="F" Min="1.29821968e+00" Max="2.59057861e+03"/>
    <Variable VarIndex="3" Expression="svtxmcorr" Label="svtxmcorr" Title="corrected svtx mass" Unit="units" Internal="svtxmcorr" Type="F" Min="-5.00000000e+00" Max="2.10000000e+01"/>
    <Variable VarIndex="4" Expression="svtxdl" Label="svtxdl" Title="svtx displacement" Unit="units" Internal="svtxdl" Type="F" Min="3.51275760e-03" Max="5.86259995e+01"/>
    <Variable VarIndex="5" Expression="svtxdls" Label="svtxdls" Title="svtx displacement significance" Unit="units" Internal="svtxdls" Type="F" Min="1.23341009e-02" Max="5.45729065e+02"/>
    <Variable VarIndex="6" Expression="svtxntrk" Label="svtxntrk" Title="svtx ntracks" Unit="units" Internal="svtxntrk" Type="F" Min="0.00000000e+00" Max="5.21475342e+02"/>
    <Variable VarIndex="7" Expression="sv2Trkdl" Label="sv2Trkdl" Title="2trk svtx close2PV dl" Unit="units" Internal="sv2Trkdl" Type="F" Min="-9.99000000e+02" Max="2.51442798e+03"/>
    <Variable VarIndex="8" Expression="svtxTrkSumChi2" Label="svtxTrkSumChi2" Title="svtx trk sum chi2" Unit="units" Internal="svtxTrkSumChi2" Type="F" Min="-1.00000000e+00" Max="3.51310944e+02"/>
    <Variable VarIndex="9" Expression="svtxTrkNetCharge" Label="svtxTrkNetCharge" Title="svtx trk net chg" Unit="units" Internal="svtxTrkNetCharge" Type="F" Min="-9.99000000e+02" Max="7.00000000e+00"/>
    <Variable VarIndex="10" Expression="svtxNtrkInCone" Label="svtxNtrkInCone" Title="svtx ntrk in cone" Unit="units" Internal="svtxNtrkInCone" Type="F" Min="0.00000000e+00" Max="1.30000000e+01"/>
    <Variable VarIndex="11" Expression="closestDMass" Label="closestDMass" Title="Closest DMass" Unit="units" Internal="closestDMass" Type="F" Min="-9.99000000e+02" Max="1.00000000e+01"/>
    <Variable VarIndex="12" Expression="closestDType" Label="closestDType" Title="Closest Type" Unit="units" Internal="closestDType" Type="F" Min="-1.00000000e+00" Max="2.00000000e+00"/>
    <Variable VarIndex="13" Expression="closestDPt" Label="closestDPt" Title="Closest DpT" Unit="units" Internal="closestDPt" Type="F" Min="-9.99000000e+02" Max="8.47271301e+02"/>
    <Variable VarIndex="14" Expression="svJetDeltaR" Label="svJetDeltaR" Title="svJetDeltaR" Unit="units" Internal="svJetDeltaR" Type="F" Min="2.30778023e-04" Max="1.14272959e+04"/>
    <Variable VarIndex="15" Expression="trackSumJetDeltaR" Label="trackSumJetDeltaR" Title="trackSumJetDeltaR" Unit="units" Internal="trackSumJetDeltaR" Type="F" Min="0.00000000e+00" Max="1.16680527e+01"/>
  </Variables>
  <Spectators NSpec="4">
    <Spectator SpecIndex="0" Expression="refpt" Label="refpt" Title="ref pT" Unit="units" Internal="refpt" Type="F" Min="0.00000000e+00" Max="1.21704517e+03"/>
    <Spectator SpecIndex="1" Expression="rawpt" Label="rawpt" Title="raw pT" Unit="units" Internal="rawpt" Type="F" Min="-6.00000000e+00" Max="1.16730469e+03"/>
    <Spectator SpecIndex="2" Expression="refparton_flavorForB" Label="refparton_flavorForB" Title="jet flavor" Unit="units" Internal="refparton_flavorForB" Type="F" Min="-5.00000000e+00" Max="2.10000000e+01"/>
    <Spectator SpecIndex="3" Expression="jtpt" Label="jtpt" Title="Jet pT" Unit="units" Internal="jtpt" Type="F" Min="0.00000000e+00" Max="1.23986682e+03"/>
  </Spectators>
  <Classes NClass="2">
    <Class Name="Signal" Index="0"/>
    <Class Name="Background" Index="1"/>
  </Classes>
  <Transformations NTransformations="0"/>
  <MVAPdfs/>
  <Weights NTrees="850" AnalysisType="1">
    <BinaryTree type="DecisionTree" boostWeight="1.0000000000000000e+00" itree="0">
      <Node pos="s" depth="0" NCoef="0" IVar="3" Cut="-3.7619047164916992e+00" cType="1" res="4.3200552463531494e-02" rms="4.9813020229339600e-01" purity="5.4320055246353149e-01" nType="0">
        <Node pos="l" depth="1" NCoef="0" IVar="3" Cut="-4.9523811340332031e+00" cType="1" res="1.4847351121716201e-04" rms="0.0000000000000000e+00" purity="1.0000000000000000e+00" nType="-99"/>
        <Node pos="r" depth="1" NCoef="0" IVar="3" Cut="1.0714285850524902e+01" cType="1" res="-2.4639664217829704e-02" rms="4.9939250946044922e-01" purity="4.7536033391952515e-01" nType="0">
          <Node pos="l" depth="2" NCoef="0" IVar="-1" Cut="0.0000000000000000e+00" cType="1" res="1.1985833225480746e-05" rms="4.9917495250701904e-01" purity="5.2871173620223999e-01" nType="-99"/>
          <Node pos="r" depth="2" NCoef="0" IVar="-1" Cut="0.0000000000000000e+00" cType="1" res="-1.7216439300682396e-04" rms="0.0000000000000000e+00" purity="0.0000000000000000e+00" nType="-99"/>
        </Node>
      </Node>
    </BinaryTree>
    <BinaryTree type="DecisionTree" boostWeight="1.0000000000000000e+00" itree="1">
      <Node pos="s" depth="0" NCoef="0" IVar="3" Cut="-3.7619047164916992e+00" cType="1" res="-1.8181592226028442e-02" rms="4.9965423345565796e-01" purity="4.8182171583175659e-01" nType="0">
        <Node pos="l" depth="1" NCoef="0" IVar="12" Cut="4.3091341853141785e-02" cType="1" res="4.9992576241493225e-01" rms="2.4142639887259065e-08" purity="1.0000000000000000e+00" nType="0">
          <Node pos="l" depth="2" NCoef="0" IVar="-1" Cut="0.0000000000000000e+00" cType="1" res="2.1666062530130148e-03" rms="0.0000000000000000e+00" purity="1.0000000000000000e+00" nType="-99"/>
          <Node pos="r" depth="2" NCoef="0" IVar="-1" Cut="0.0000000000000000e+00" cType="1" res="2.0349581609480083e-04" rms="5.8665929003609563e-08" purity="1.0000000000000000e+00" nType="-99"/>
        </Node>
        <Node pos="r" depth="1" NCoef="0" IVar="3" Cut="1.0714285850524902e+01" cType="1" res="-7.0742070674896240e-02" rms="4.9496108293533325e-01" purity="4.2925402522087097e-01" nType="0">
          <Node pos="l" depth="2" NCoef="0" IVar="-1" Cut="0.0000000000000000e+00" cType="1" res="-8.6510826804442331e-06" rms="4.9964621663093567e-01" purity="4.8119375109672546e-01" nType="-99"/>
          <Node pos="r" depth="2" NCoef="0" IVar="-1" Cut="0.0000000000000000e+00" cType="1" res="-1.6970704018604010e-04" rms="1.1470022798221180e-07" purity="0.0000000000000000e+00" nType="-99"/>
        </Node>
      </Node>
    </BinaryTree>
    <BinaryTree type="DecisionTree" boostWeight="1.0000000000000000e+00" itree="2">
      <Node pos="s" depth="0" NCoef="0" IVar="3" Cut="-3.7619047164916992e+00" cType="1" res="1.6837136819958687e-02" rms="4.9964016675949097e-01" purity="5.1688778400421143e-01" nType="0">
        <Node pos="l" depth="1" NCoef="0" IVar="12" Cut="4.3141230940818787e-02" cType="1" res="4.9943858385086060e-01" rms="4.7934596659615636e-04" purity="1.0000000000000000e+00" nType="0">
          <Node pos="l" depth="2" NCoef="0" IVar="-1" Cut="0.0000000000000000e+00" cType="1" res="4.2080093408003449e-04" rms="4.1006569517776370e-05" purity="1.0000000000000000e+00" nType="-99"/>
          <Node pos="r" depth="2" NCoef="0" IVar="-1" Cut="0.0000000000000000e+00" cType="1" res="1.4422820822801441e-04" rms="0.0000000000000000e+00" purity="1.0000000000000000e+00" nType="-99"/>
        </Node>
        <Node pos="r" depth="1" NCoef="0" IVar="3" Cut="1.0714285850524902e+01" cType="1" res="-4.3952200561761856e-02" rms="4.9804922938346863e-01" purity="4.5603418350219727e-01" nType="0">
          <Node pos="l" depth="2" NCoef="0" IVar="-1" Cut="0.0000000000000000e+00" cType="1" res="2.0543575374176726e-07" rms="4.9999979138374329e-01" purity="5.0044369697570801e-01" nType="-99"/>
          <Node pos="r" depth="2" NCoef="0" IVar="-1" Cut="0.0000000000000000e+00" cType="1" res="-2.2267914027906954e-04" rms="0.0000000000000000e+00" purity="0.0000000000000000e+00" nType="-99"/>
        </Node>
      </Node>
    </BinaryTree>
    <BinaryTree type="DecisionTree" boostWeight="1.0000000000000000e+00" itree="3">
      <Node pos="s" depth="0" NCoef="0" IVar="3" Cut="-3.7619047164916992e+00" cType="1" res="-2.6896497234702110e-02" rms="4.9917811155319214e-01" purity="4.7315353155136108e-01" nType="0">
        <Node pos="l" depth="1" NCoef="0" IVar="12" Cut="4.3356768786907196e-02" cType="1" res="4.9920010566711426e-01" rms="5.5981217883527279e-04" purity="1.0000000000000000e+00" nType="0">
          <Node pos="l" depth="2" NCoef="0" IVar="-1" Cut="0.0000000000000000e+00" cType="1" res="7.0984556805342436e-04" rms="5.2539180614985526e-05" purity="1.0000000000000000e+00" nType="-99"/>
          <Node pos="r" depth="2" NCoef="0" IVar="-1" Cut="0.0000000000000000e+00" cType="1" res="2.2255702060647309e-04" rms="0.0000000000000000e+00" purity="1.0000000000000000e+00" nType="-99"/>
        </Node>
        <Node pos="r" depth="1" NCoef="0" IVar="3" Cut="1.0714285850524902e+01" cType="1" res="-7.9971343278884888e-02" rms="4.9353572726249695e-01" purity="4.2000305652618408e-01" nType="0">
          <Node pos="l" depth="2" NCoef="0" IVar="-1" Cut="0.0000000000000000e+00" cType="1" res="-1.5057178643473890e-05" rms="4.9875912070274353e-01" purity="4.6479555964469910e-01" nType="-99"/>
          <Node pos="r" depth="2" NCoef="0" IVar="-1" Cut="0.0000000000000000e+00" cType="1" res="-1.8533736874815077e-04" rms="0.0000000000000000e+00" purity="0.0000000000000000e+00" nType="-99"/>
        </Node>
      </Node>
    </BinaryTree>
    <BinaryTree type="DecisionTree" boostWeight="1.0000000000000000e+00" itree="4">
      <Node pos="s" depth="0" NCoef="0" IVar="3" Cut="9.8571424484252930e+00" cType="1" res="1.5860624611377716e-02" rms="4.9961394071578979e-01" purity="5.1589632034301758e-01" nType="0">
        <Node pos="l" depth="1" NCoef="0" IVar="3" Cut="3.4893705844879150e+00" cType="1" res="9.1467007994651794e-02" rms="4.9146103858947754e-01" purity="5.9156227111816406e-01" nType="0">
          <Node pos="l" depth="2" NCoef="0" IVar="-1" Cut="0.0000000000000000e+00" cType="1" res="-3.3569983770576073e-06" rms="4.9979975819587708e-01" purity="4.9292898178100586e-01" nType="-99"/>
          <Node pos="r" depth="2" NCoef="0" IVar="-1" Cut="0.0000000000000000e+00" cType="1" res="9.5968760433606803e-05" rms="3.9816638827323914e-01" purity="8.0242937803268433e-01" nType="-99"/>
        </Node>
        <Node pos="r" depth="1" NCoef="0" IVar="0" Cut="3.8020591735839844e+01" cType="1" res="-4.9671936035156250e-01" rms="5.3866971284151077e-02" purity="2.9122412670403719e-03" nType="0">
          <Node pos="l" depth="2" NCoef="0" IVar="-1" Cut="0.0000000000000000e+00" cType="1" res="-1.0539114009588957e-04" rms="8.7732367217540741e-02" purity="7.7626812271773815e-03" nType="-99"/>
          <Node pos="r" depth="2" NCoef="0" IVar="-1" Cut="0.0000000000000000e+00" cType="1" res="-1.0947259579552338e-04" rms="0.0000000000000000e+00" purity="0.0000000000000000e+00" nType="-99"/>
        </Node>
      </Node>
    </BinaryTree>
    <BinaryTree type="DecisionTree" boostWeight="1.0000000000000000e+00" itree="5">
      <Node pos="s" depth="0" NCoef="0" IVar="3" Cut="-3.7619047164916992e+00" cType="1" res="-4.3448299169540405e-02" rms="4.9799832701683044e-01" purity="4.5661410689353943e-01" nType="0">
        <Node pos="l" depth="1" NCoef="0" IVar="12" Cut="4.3131440877914429e-02" cType="1" res="4.9917051196098328e-01" rms="6.4843782456591725e-04" purity="1.0000000000000000e+00" nType="0">
          <Node pos="l" depth="2" NCoef="0" IVar="-1" Cut="0.0000000000000000e+00" cType="1" res="1.9098583143204451e-03" rms="1.9017087424799684e-06" purity="1.0000000000000000e+00" nType="-99"/>
          <Node pos="r" depth="2" NCoef="0" IVar="-1" Cut="0.0000000000000000e+00" cType="1" res="1.8036502297036350e-04" rms="8.5894971562083811e-06" purity="1.0000000000000000e+00" nType="-99"/>
        </Node>
        <Node pos="r" depth="1" NCoef="0" IVar="3" Cut="1.0714285850524902e+01" cType="1" res="-1.0184121876955032e-01" rms="4.8948523402214050e-01" purity="3.9813861250877380e-01" nType="0">
          <Node pos="l" depth="2" NCoef="0" IVar="-1" Cut="0.0000000000000000e+00" cType="1" res="-2.4603961719549261e-05" rms="4.9464616179466248e-01" purity="4.2706167697906494e-01" nType="-99"/>
          <Node pos="r" depth="2" NCoef="0" IVar="-1" Cut="0.0000000000000000e+00" cType="1" res="-1.9089527195319533e-03" rms="9.0788620354942395e-07" purity="0.0000000000000000e+00" nType="-99"/>
        </Node>
      </Node>
    </BinaryTree>
    <BinaryTree type="DecisionTree" boostWeight="1.0000000000000000e+00" itree="6">
      <Node pos="s" depth="0" NCoef="0" IVar="3" Cut="-3.7619047164916992e+00" cType="1" res="1.1838240548968315e-02" rms="4.9956887960433960e-01" purity="5.1190787553787231e-01" nType="0">
        <Node pos="l" depth="1" NCoef="0" IVar="12" Cut="4.3020788580179214e-02" cType="1" res="4.9839720129966736e-01" rms="1.1129584163427353e-03" purity="1.0000000000000000e+00" nType="0">
          <Node pos="l" depth="2" NCoef="0" IVar="-1" Cut="0.0000000000000000e+00" cType="1" res="2.9084246489219368e-04" rms="0.0000000000000000e+00" purity="1.0000000000000000e+00" nType="-99"/>
          <Node pos="r" depth="2" NCoef="0" IVar="-1" Cut="0.0000000000000000e+00" cType="1" res="1.8532251124270260e-04" rms="5.2569834224414080e-05" purity="1.0000000000000000e+00" nType="-99"/>
        </Node>
        <Node pos="r" depth="1" NCoef="0" IVar="3" Cut="1.0714285850524902e+01" cType="1" res="-5.0145585089921951e-02" rms="4.9735426902770996e-01" purity="4.4972872734069824e-01" nType="0">
          <Node pos="l" depth="2" NCoef="0" IVar="-1" Cut="0.0000000000000000e+00" cType="1" res="-2.8707397632388165e-06" rms="4.9995142221450806e-01" purity="4.9321308732032776e-01" nType="-99"/>
          <Node pos="r" depth="2" NCoef="0" IVar="-1" Cut="0.0000000000000000e+00" cType="1" res="-2.2988660202827305e-04" rms="9.8452028396422975e-07" purity="0.0000000000000000e+00" nType="-99"/>
        </Node>
      </Node>
    </BinaryTree>
    <BinaryTree type="DecisionTree" boostWeight="1.0000000000000000e+00" itree="7">
      <Node pos="s" depth="0" NCoef="0" IVar="3" Cut="-3.7619047164916992e+00" cType="1" res="3.5592378117144108e-03" rms="4.9968180060386658e-01" purity="5.0355720520019531e-01" nType="0">
        <Node pos="l" depth="1" NCoef="0" IVar="12" Cut="4.3061081320047379e-02" cType="1" res="4.9865087866783142e-01" rms="1.0910663986578584e-03" purity="1.0000000000000000e+00" nType="0">
          <Node pos="l" depth="2" NCoef="0" IVar="-1" Cut="0.0000000000000000e+00" cType="1" res="6.7778985248878598e-04" rms="6.0597545825658017e-07" purity="1.0000000000000000e+00" nType="-99"/>
          <Node pos="r" depth="2" NCoef="0" IVar="-1" Cut="0.0000000000000000e+00" cType="1" res="1.3759493594989181e-04" rms="1.7061684047803283e-05" purity="1.0000000000000000e+00" nType="-99"/>
        </Node>
        <Node pos="r" depth="1" NCoef="0" IVar="3" Cut="1.0714285850524902e+01" cType="1" res="-5.9419445693492889e-02" rms="4.9628248810768127e-01" purity="4.4040668010711670e-01" nType="0">
          <Node pos="l" depth="2" NCoef="0" IVar="-1" Cut="0.0000000000000000e+00" cType="1" res="-1.4278198250394780e-06" rms="4.9998432397842407e-01" purity="4.9660325050354004e-01" nType="-99"/>
          <Node pos="r" depth="2" NCoef="0" IVar="-1" Cut="0.0000000000000000e+00" cType="1" res="-1.4445569831877947e-04" rms="8.8794854491425212e-07" purity="0.0000000000000000e+00" nType="-99"/>
        </Node>
      </Node>
    </BinaryTree>
    <BinaryTree type="DecisionTree" boostWeight="1.0000000000000000e+00" itree="8">
      <Node pos="s" depth="0" NCoef="0" IVar="3" Cut="-3.7619047164916992e+00" cType="1" res="-1.4816091395914555e-02" rms="4.9947673082351685e-01" purity="4.8522445559501648e-01" nType="0">
        <Node pos="l" depth="1" NCoef="0" IVar="12" Cut="4.3131440877914429e-02" cType="1" res="4.9835228919982910e-01" rms="1.2529327068477869e-03" purity="1.0000000000000000e+00" nType="0">
          <Node pos="l" depth="2" NCoef="0" IVar="-1" Cut="0.0000000000000000e+00" cType="1" res="6.8516086321324110e-04" rms="5.5188311307574622e-06" purity="1.0000000000000000e+00" nType="-99"/>
          <Node pos="r" depth="2" NCoef="0" IVar="-1" Cut="0.0000000000000000e+00" cType="1" res="1.6345351468771696e-04" rms="1.2213138688821346e-05" purity="1.0000000000000000e+00" nType="-99"/>
        </Node>
        <Node pos="r" depth="1" NCoef="0" IVar="3" Cut="1.0714285850524902e+01" cType="1" res="-7.4765741825103760e-02" rms="4.9422985315322876e-01" purity="4.2508700489997864e-01" nType="0">
          <Node pos="l" depth="2" NCoef="0" IVar="-1" Cut="0.0000000000000000e+00" cType="1" res="-1.4659600310551468e-05" rms="4.9891126155853271e-01" purity="4.6711301803588867e-01" nType="-99"/>
          <Node pos="r" depth="2" NCoef="0" IVar="-1" Cut="0.0000000000000000e+00" cType="1" res="-1.7896501231007278e-04" rms="9.6964947715605376e-07" purity="0.0000000000000000e+00" nType="-99"/>
        </Node>
      </Node>
    </BinaryTree>
    <BinaryTree type="DecisionTree" boostWeight="1.0000000000000000e+00" itree="9">
      <Node pos="s" depth="0" NCoef="0" IVar="3" Cut="-3.7619047164916992e+00" cType="1" res="-5.5916351266205311e-03" rms="4.9964329600334167e-01" purity="4.9445807933807373e-01" nType="0">
        <Node pos="l" depth="1" NCoef="0" IVar="12" Cut="4.3317850679159164e-02" cType="1" res="4.9834400415420532e-01" rms="1.3344709295779467e-03" purity="1.0000000000000000e+00" nType="0">
          <Node pos="l" depth="2" NCoef="0" IVar="-1" Cut="0.0000000000000000e+00" cType="1" res="1.9503394141793251e-03" rms="4.7919646021910012e-05" purity="1.0000000000000000e+00" nType="-99"/>
          <Node pos="r" depth="2" NCoef="0" IVar="-1" Cut="0.0000000000000000e+00" cType="1" res="1.2511652312241495e-04" rms="8.8023780335788615e-06" purity="1.0000000000000000e+00" nType="-99"/>
        </Node>
        <Node pos="r" depth="1" NCoef="0" IVar="3" Cut="1.0714285850524902e+01" cType="1" res="-7.1239948272705078e-02" rms="4.9474468827247620e-01" purity="4.2860054969787598e-01" nType="0">
          <Node pos="l" depth="2" NCoef="0" IVar="-1" Cut="0.0000000000000000e+00" cType="1" res="-1.3028822650085203e-05" rms="4.9913185834884644e-01" purity="4.7062146663665771e-01" nType="-99"/>
          <Node pos="r" depth="2" NCoef="0" IVar="-1" Cut="0.0000000000000000e+00" cType="1" res="-1.9706289458554238e-04" rms="9.6863277576630935e-07" purity="0.0000000000000000e+00" nType="-99"/>
        </Node>
      </Node>
    </BinaryTree>
    <BinaryTree type="DecisionTree" boostWeight="1.0000000000000000e+00" itree="10">
      <Node pos="s" depth="0" NCoef="0" IVar="3" Cut="8.6190471649169922e+00" cType="1" res="3.4074544906616211e-02" rms="4.9845853447914124e-01" purity="5.3411906957626343e-01" nType="0">
        <Node pos="l" depth="1" NCoef="0" IVar="3" Cut="-3.7031645774841309e+00" cType="1" res="8.8122844696044922e-02" rms="4.9192610383033752e-01" purity="5.8834642171859741e-01" nType="0">
          <Node pos="l" depth="2" NCoef="0" IVar="-1" Cut="0.0000000000000000e+00" cType="1" res="2.0853942260146141e-04" rms="1.7954726936295629e-03" purity="1.0000000000000000e+00" nType="-99"/>
          <Node pos="r" depth="2" NCoef="0" IVar="-1" Cut="0.0000000000000000e+00" cType="1" res="1.5757932487758808e-05" rms="4.9870178103446960e-01" purity="5.3592699766159058e-01" nType="-99"/>
        </Node>
        <Node pos="r" depth="1" NCoef="0" IVar="4" Cut="2.3753960430622101e-01" cType="1" res="-4.8867681622505188e-01" rms="9.7527965903282166e-02" purity="9.6360966563224792e-03" nType="0">
          <Node pos="l" depth="2" NCoef="0" IVar="-1" Cut="0.0000000000000000e+00" cType="1" res="-2.4063510354608297e-03" rms="1.7013569176197052e-01" purity="2.9929192736744881e-02" nType="-99"/>
          <Node pos="r" depth="2" NCoef="0" IVar="-1" Cut="0.0000000000000000e+00" cType="1" res="-1.2644195521716028e-04" rms="4.8719011247158051e-02" purity="2.3872305173426867e-03" nType="-99"/>
        </Node>
      </Node>
    </BinaryTree>
    <BinaryTree type="DecisionTree" boostWeight="1.0000000000000000e+00" itree="11">
      <Node pos="s" depth="0" NCoef="0" IVar="3" Cut="-3.7619047164916992e+00" cType="1" res="3.7280165124684572e-03" rms="4.9954101443290710e-01" purity="5.0387114286422729e-01" nType="0">
        <Node pos="l" depth="1" NCoef="0" IVar="12" Cut="4.3060883879661560e-02" cType="1" res="4.9772280454635620e-01" rms="1.8083776813000441e-03" purity="1.0000000000000000e+00" nType="0">
          <Node pos="l" depth="2" NCoef="0" IVar="-1" Cut="0.0000000000000000e+00" cType="1" res="3.1743798172101378e-04" rms="9.5688483270350844e-07" purity="1.0000000000000000e+00" nType="-99"/>
          <Node pos="r" depth="2" NCoef="0" IVar="-1" Cut="0.0000000000000000e+00" cType="1" res="1.5918441931717098e-04" rms="3.0902174330549315e-05" purity="1.0000000000000000e+00" nType="-99"/>
        </Node>
        <Node pos="r" depth="1" NCoef="0" IVar="3" Cut="9.5714282989501953e+00" cType="1" res="-7.0583544671535492e-02" rms="4.9482062458992004e-01" purity="4.2923858761787415e-01" nType="0">
          <Node pos="l" depth="2" NCoef="0" IVar="-1" Cut="0.0000000000000000e+00" cType="1" res="-1.6337728084181435e-05" rms="4.9869468808174133e-01" purity="4.6396276354789734e-01" nType="-99"/>
          <Node pos="r" depth="2" NCoef="0" IVar="-1" Cut="0.0000000000000000e+00" cType="1" res="-7.8498141374439001e-04" rms="8.9586034417152405e-02" purity="8.1080356612801552e-03" nType="-99"/>
        </Node>
      </Node>
    </BinaryTree>
    <BinaryTree type="DecisionTree" boostWeight="1.0000000000000000e+00" itree="12">
      <Node pos="s" depth="0" NCoef="0" IVar="3" Cut="9.8571424484252930e+00" cType="1" res="-7.9555949196219444e-03" rms="4.9948552250862122e-01" purity="4.9194285273551941e-01" nType="0">
        <Node pos="l" depth="1" NCoef="0" IVar="3" Cut="-3.5851459503173828e+00" cType="1" res="4.9421630799770355e-02" rms="4.9734139442443848e-01" purity="5.4960578680038452e-01" nType="0">
          <Node pos="l" depth="2" NCoef="0" IVar="-1" Cut="0.0000000000000000e+00" cType="1" res="6.1352283228188753e-04" rms="1.8654302693903446e-03" purity="1.0000000000000000e+00" nType="-99"/>
          <Node pos="r" depth="2" NCoef="0" IVar="-1" Cut="0.0000000000000000e+00" cType="1" res="4.2206916077702772e-06" rms="4.9991285800933838e-01" purity="5.0900030136108398e-01" nType="-99"/>
        </Node>
        <Node pos="r" depth="1" NCoef="0" IVar="4" Cut="2.1641176939010620e-01" cType="1" res="-4.9311286211013794e-01" rms="6.5904602408409119e-02" purity="4.3698865920305252e-03" nType="0">
          <Node pos="l" depth="2" NCoef="0" IVar="-1" Cut="0.0000000000000000e+00" cType="1" res="-1.5589973190799356e-04" rms="1.1980423331260681e-01" purity="1.4611019752919674e-02" nType="-99"/>
          <Node pos="r" depth="2" NCoef="0" IVar="-1" Cut="0.0000000000000000e+00" cType="1" res="-2.0403812231961638e-04" rms="1.4949354343116283e-02" purity="2.2425375937018543e-04" nType="-99"/>
        </Node>
      </Node>
    </BinaryTree>
    <BinaryTree type="DecisionTree" boostWeight="1.0000000000000000e+00" itree="13">
      <Node pos="s" depth="0" NCoef="0" IVar="3" Cut="-3.7619047164916992e+00" cType="1" res="-5.0395853817462921e-02" rms="4.9706965684890747e-01" purity="4.4964113831520081e-01" nType="0">
        <Node pos="l" depth="1" NCoef="0" IVar="12" Cut="4.3060883879661560e-02" cType="1" res="4.9716210365295410e-01" rms="1.8762685358524323e-03" purity="1.0000000000000000e+00" nType="0">
          <Node pos="l" depth="2" NCoef="0" IVar="-1" Cut="0.0000000000000000e+00" cType="1" res="2.0765061490237713e-03" rms="1.0976023077091668e-06" purity="1.0000000000000000e+00" nType="-99"/>
          <Node pos="r" depth="2" NCoef="0" IVar="-1" Cut="0.0000000000000000e+00" cType="1" res="1.8386539886705577e-04" rms="6.5036343585234135e-05" purity="1.0000000000000000e+00" nType="-99"/>
        </Node>
        <Node pos="r" depth="1" NCoef="0" IVar="3" Cut="1.0714285850524902e+01" cType="1" res="-9.5886766910552979e-02" rms="4.9053722620010376e-01" purity="4.0391752123832703e-01" nType="0">
          <Node pos="l" depth="2" NCoef="0" IVar="-1" Cut="0.0000000000000000e+00" cType="1" res="-2.2911730411578901e-05" rms="4.9525067210197449e-01" purity="4.3128082156181335e-01" nType="-99"/>
          <Node pos="r" depth="2" NCoef="0" IVar="-1" Cut="0.0000000000000000e+00" cType="1" res="-2.0835259929299355e-03" rms="5.3514842875301838e-04" purity="0.0000000000000000e+00" nType="-99"/>
        </Node>
      </Node>
    </BinaryTree>
    <BinaryTree type="DecisionTree" boostWeight="1.0000000000000000e+00" itree="14">
      <Node pos="s" depth="0" NCoef="0" IVar="3" Cut="-3.7619047164916992e+00" cType="1" res="6.9733322598040104e-03" rms="4.9930632114410400e-01" purity="5.0696718692779541e-01" nType="0">
        <Node pos="l" depth="1" NCoef="0" IVar="12" Cut="4.3015021830797195e-02" cType="1" res="4.9667918682098389e-01" rms="2.3414499592036009e-03" purity="1.0000000000000000e+00" nType="0">
          <Node pos="l" depth="2" NCoef="0" IVar="-1" Cut="0.0000000000000000e+00" cType="1" res="4.1269333451054990e-04" rms="0.0000000000000000e+00" purity="1.0000000000000000e+00" nType="-99"/>
          <Node pos="r" depth="2" NCoef="0" IVar="-1" Cut="0.0000000000000000e+00" cType="1" res="2.0395139290485531e-04" rms="7.6797216024715453e-05" purity="1.0000000000000000e+00" nType="-99"/>
        </Node>
        <Node pos="r" depth="1" NCoef="0" IVar="3" Cut="1.0714285850524902e+01" cType="1" res="-4.7565773129463196e-02" rms="4.9738228321075439e-01" purity="4.5205754041671753e-01" nType="0">
          <Node pos="l" depth="2" NCoef="0" IVar="-1" Cut="0.0000000000000000e+00" cType="1" res="-2.0230318398262170e-07" rms="4.9999523162841797e-01" purity="4.9944743514060974e-01" nType="-99"/>
          <Node pos="r" depth="2" NCoef="0" IVar="-1" Cut="0.0000000000000000e+00" cType="1" res="-2.0373750885482877e-04" rms="4.8737789620645344e-04" purity="0.0000000000000000e+00" nType="-99"/>
        </Node>
      </Node>
    </BinaryTree>
    <BinaryTree type="DecisionTree" boostWeight="1.0000000000000000e+00" itree="15">
      <Node pos="s" depth="0" NCoef="0" IVar="3" Cut="-3.7619047164916992e+00" cType="1" res="3.3695534802973270e-03" rms="4.9938985705375671e-01" purity="5.0346314907073975e-01" nType="0">
        <Node pos="l" depth="1" NCoef="0" IVar="12" Cut="4.3141428381204605e-02" cType="1" res="4.9655199050903320e-01" rms="2.3903644178062677e-03" purity="1.0000000000000000e+00" nType="0">
          <Node pos="l" depth="2" NCoef="0" IVar="-1" Cut="0.0000000000000000e+00" cType="1" res="3.9370273589156568e-04" rms="6.0223297623451799e-05" purity="1.0000000000000000e+00" nType="-99"/>
          <Node pos="r" depth="2" NCoef="0" IVar="-1" Cut="0.0000000000000000e+00" cType="1" res="1.7207398195751011e-04" rms="1.3762643902737182e-05" purity="1.0000000000000000e+00" nType="-99"/>
        </Node>
        <Node pos="r" depth="1" NCoef="0" IVar="3" Cut="9.5714282989501953e+00" cType="1" res="-5.3852040320634842e-02" rms="4.9682003259658813e-01" purity="4.4585239887237549e-01" nType="0">
          <Node pos="l" depth="2" NCoef="0" IVar="-1" Cut="0.0000000000000000e+00" cType="1" res="-8.3904014900326729e-06" rms="4.9954804778099060e-01" purity="4.7885313630104065e-01" nType="-99"/>
          <Node pos="r" depth="2" NCoef="0" IVar="-1" Cut="0.0000000000000000e+00" cType="1" res="-1.9612577743828297e-03" rms="8.7185151875019073e-02" purity="7.6918187551200390e-03" nType="-99"/>
        </Node>
      </Node>
    </BinaryTree>
    <BinaryTree type="DecisionTree" boostWeight="1.0000000000000000e+00" itree="16">
      <Node pos="s" depth="0" NCoef="0" IVar="3" Cut="-3.7619047164916992e+00" cType="1" res="-4.1421870701014996e-03" rms="4.9936503171920776e-01" purity="4.9584835767745972e-01" nType="0">
        <Node pos="l" depth="1" NCoef="0" IVar="12" Cut="4.3061081320047379e-02" cType="1" res="4.9683606624603271e-01" rms="2.3343947250396013e-03" purity="1.0000000000000000e+00" nType="0">
          <Node pos="l" depth="2" NCoef="0" IVar="-1" Cut="0.0000000000000000e+00" cType="1" res="2.0999729167670012e-03" rms="2.4488281269441359e-06" purity="1.0000000000000000e+00" nType="-99"/>
          <Node pos="r" depth="2" NCoef="0" IVar="-1" Cut="0.0000000000000000e+00" cType="1" res="1.4137956895865500e-04" rms="3.2595446100458503e-05" purity="1.0000000000000000e+00" nType="-99"/>
        </Node>
        <Node pos="r" depth="1" NCoef="0" IVar="3" Cut="9.5714282989501953e+00" cType="1" res="-6.0075301676988602e-02" rms="4.9604046344757080e-01" purity="4.3956094980239868e-01" nType="0">
          <Node pos="l" depth="2" NCoef="0" IVar="-1" Cut="0.0000000000000000e+00" cType="1" res="-9.6373705673613586e-06" rms="4.9921935796737671e-01" purity="4.7215253114700317e-01" nType="-99"/>
          <Node pos="r" depth="2" NCoef="0" IVar="-1" Cut="0.0000000000000000e+00" cType="1" res="-3.5311118699610233e-04" rms="8.0814808607101440e-02" purity="6.6012018360197544e-03" nType="-99"/>
        </Node>
      </Node>
    </BinaryTree>
    <BinaryTree type="DecisionTree" boostWeight="1.0000000000000000e+00" itree="17">
      <Node pos="s" depth="0" NCoef="0" IVar="3" Cut="-3.7619047164916992e+00" cType="1" res="1.7081901431083679e-02" rms="4.9901407957077026e-01" purity="5.1703161001205444e-01" nType="0">
        <Node pos="l" depth="1" NCoef="0" IVar="12" Cut="4.3101135641336441e-02" cType="1" res="4.9591204524040222e-01" rms="2.9327424708753824e-03" purity="1.0000000000000000e+00" nType="0">
          <Node pos="l" depth="2" NCoef="0" IVar="-1" Cut="0.0000000000000000e+00" cType="1" res="2.1747890859842300e-03" rms="1.6521404177183285e-05" purity="1.0000000000000000e+00" nType="-99"/>
          <Node pos="r" depth="2" NCoef="0" IVar="-1" Cut="0.0000000000000000e+00" cType="1" res="3.2728243968449533e-04" rms="1.5383022400783375e-05" purity="1.0000000000000000e+00" nType="-99"/>
        </Node>
        <Node pos="r" depth="1" NCoef="0" IVar="3" Cut="1.0714285850524902e+01" cType="1" res="-2.6529038324952126e-02" rms="4.9890875816345215e-01" purity="4.7304376959800720e-01" nType="0">
          <Node pos="l" depth="2" NCoef="0" IVar="-1" Cut="0.0000000000000000e+00" cType="1" res="5.9873896134376992e-06" rms="4.9983552098274231e-01" purity="5.1248919963836670e-01" nType="-99"/>
          <Node pos="r" depth="2" NCoef="0" IVar="-1" Cut="0.0000000000000000e+00" cType="1" res="-4.5791652519255877e-04" rms="5.1475019427016377e-04" purity="0.0000000000000000e+00" nType="-99"/>
        </Node>
      </Node>
    </BinaryTree>
    <BinaryTree type="DecisionTree" boostWeight="1.0000000000000000e+00" itree="18">
      <Node pos="s" depth="0" NCoef="0" IVar="3" Cut="-3.7619047164916992e+00" cType="1" res="3.3599447458982468e-02" rms="4.9809956550598145e-01" purity="5.3362834453582764e-01" nType="0">
        <Node pos="l" depth="1" NCoef="0" IVar="12" Cut="4.3060883879661560e-02" cType="1" res="4.9594068527221680e-01" rms="3.2402845099568367e-03" purity="1.0000000000000000e+00" nType="0">
          <Node pos="l" depth="2" NCoef="0" IVar="-1" Cut="0.0000000000000000e+00" cType="1" res="6.5492221619933844e-04" rms="1.8564583115221467e-06" purity="1.0000000000000000e+00" nType="-99"/>
          <Node pos="r" depth="2" NCoef="0" IVar="-1" Cut="0.0000000000000000e+00" cType="1" res="1.3337108248379081e-04" rms="7.3128256190102547e-05" purity="1.0000000000000000e+00" nType="-99"/>
        </Node>
        <Node pos="r" depth="1" NCoef="0" IVar="3" Cut="1.0714285850524902e+01" cType="1" res="-1.9213367253541946e-02" rms="4.9923527240753174e-01" purity="4.8035514354705811e-01" nType="0">
          <Node pos="l" depth="2" NCoef="0" IVar="-1" Cut="0.0000000000000000e+00" cType="1" res="6.8388335421332158e-06" rms="4.9961149692535400e-01" purity="5.1949000358581543e-01" nType="-99"/>
          <Node pos="r" depth="2" NCoef="0" IVar="-1" Cut="0.0000000000000000e+00" cType="1" res="-2.3854567552916706e-04" rms="5.1607895875349641e-04" purity="0.0000000000000000e+00" nType="-99"/>
        </Node>
      </Node>
    </BinaryTree>
    <BinaryTree type="DecisionTree" boostWeight="1.0000000000000000e+00" itree="19">
      <Node pos="s" depth="0" NCoef="0" IVar="3" Cut="-3.7619047164916992e+00" cType="1" res="-3.4314773511141539e-03" rms="4.9913388490676880e-01" purity="4.9669867753982544e-01" nType="0">
        <Node pos="l" depth="1" NCoef="0" IVar="12" Cut="4.3517548590898514e-02" cType="1" res="4.9509853124618530e-01" rms="3.5292308311909437e-03" purity="1.0000000000000000e+00" nType="0">
          <Node pos="l" depth="2" NCoef="0" IVar="-1" Cut="0.0000000000000000e+00" cType="1" res="3.0112938839010894e-04" rms="2.4102073803078383e-04" purity="1.0000000000000000e+00" nType="-99"/>
          <Node pos="r" depth="2" NCoef="0" IVar="-1" Cut="0.0000000000000000e+00" cType="1" res="1.7440567899029702e-04" rms="8.6728086046150565e-08" purity="1.0000000000000000e+00" nType="-99"/>
        </Node>
        <Node pos="r" depth="1" NCoef="0" IVar="3" Cut="1.0714285850524902e+01" cType="1" res="-6.0839489102363586e-02" rms="4.9589002132415771e-01" purity="4.3874126672744751e-01" nType="0">
          <Node pos="l" depth="2" NCoef="0" IVar="-1" Cut="0.0000000000000000e+00" cType="1" res="-1.0069741620100103e-05" rms="4.9924421310424805e-01" purity="4.7268217802047729e-01" nType="-99"/>
          <Node pos="r" depth="2" NCoef="0" IVar="-1" Cut="0.0000000000000000e+00" cType="1" res="-4.6498861047439277e-04" rms="5.2784814033657312e-04" purity="0.0000000000000000e+00" nType="-99"/>
        </Node>
      </Node>
    </BinaryTree>
    <BinaryTree type="DecisionTree" boostWeight="1.0000000000000000e+00" itree="20">
      <Node pos="s" depth="0" NCoef="0" IVar="3" Cut="-3.7619047164916992e+00" cType="1" res="-1.5130818821489811e-02" rms="4.9890777468681335e-01" purity="4.8489567637443542e-01" nType="0">
        <Node pos="l" depth="1" NCoef="0" IVar="12" Cut="4.3085578829050064e-02" cType="1" res="4.9520742893218994e-01" rms="3.5230484791100025e-03" purity="1.0000000000000000e+00" nType="0">
          <Node pos="l" depth="2" NCoef="0" IVar="-1" Cut="0.0000000000000000e+00" cType="1" res="1.9952713046222925e-03" rms="2.3676378987147473e-05" purity="1.0000000000000000e+00" nType="-99"/>
          <Node pos="r" depth="2" NCoef="0" IVar="-1" Cut="0.0000000000000000e+00" cType="1" res="1.5564642671961337e-04" rms="6.2448176322504878e-05" purity="1.0000000000000000e+00" nType="-99"/>
        </Node>
        <Node pos="r" depth="1" NCoef="0" IVar="3" Cut="1.0714285850524902e+01" cType="1" res="-6.9403320550918579e-02" rms="4.9470728635787964e-01" purity="4.3011629581451416e-01" nType="0">
          <Node pos="l" depth="2" NCoef="0" IVar="-1" Cut="0.0000000000000000e+00" cType="1" res="-1.4588865269615781e-05" rms="4.9889338016510010e-01" purity="4.6692526340484619e-01" nType="-99"/>
          <Node pos="r" depth="2" NCoef="0" IVar="-1" Cut="0.0000000000000000e+00" cType="1" res="-2.5224234559573233e-04" rms="5.1715993322432041e-04" purity="0.0000000000000000e+00" nType="-99"/>
        </Node>
      </Node>
    </BinaryTree>
    <BinaryTree type="DecisionTree" boostWeight="1.0000000000000000e+00" itree="21">
      <Node pos="s" depth="0" NCoef="0" IVar="3" Cut="-3.7619047164916992e+00" cType="1" res="-1.1964109726250172e-02" rms="4.9891838431358337e-01" purity="4.8797670006752014e-01" nType="0">
        <Node pos="l" depth="1" NCoef="0" IVar="12" Cut="4.3016966432332993e-02" cType="1" res="4.9484157562255859e-01" rms="3.9567612111568451e-03" purity="1.0000000000000000e+00" nType="0">
          <Node pos="l" depth="2" NCoef="0" IVar="-1" Cut="0.0000000000000000e+00" cType="1" res="5.8801291743293405e-04" rms="0.0000000000000000e+00" purity="1.0000000000000000e+00" nType="-99"/>
          <Node pos="r" depth="2" NCoef="0" IVar="-1" Cut="0.0000000000000000e+00" cType="1" res="1.8437126709613949e-04" rms="9.3471302534453571e-05" purity="1.0000000000000000e+00" nType="-99"/>
        </Node>
        <Node pos="r" depth="1" NCoef="0" IVar="3" Cut="1.0714285850524902e+01" cType="1" res="-6.1647232621908188e-02" rms="4.9565306305885315e-01" purity="4.3778207898139954e-01" nType="0">
          <Node pos="l" depth="2" NCoef="0" IVar="-1" Cut="0.0000000000000000e+00" cType="1" res="-6.8533231569745112e-06" rms="4.9967613816261292e-01" purity="4.8217260837554932e-01" nType="-99"/>
          <Node pos="r" depth="2" NCoef="0" IVar="-1" Cut="0.0000000000000000e+00" cType="1" res="-1.3923182268626988e-04" rms="5.2437797421589494e-04" purity="0.0000000000000000e+00" nType="-99"/>
        </Node>
      </Node>
    </BinaryTree>
    <BinaryTree type="DecisionTree" boostWeight="1.0000000000000000e+00" itree="22">
      <Node pos="s" depth="0" NCoef="0" IVar="3" Cut="-3.7619047164916992e+00" cType="1" res="-1.0740457102656364e-02" rms="4.9898213148117065e-01" purity="4.8930504918098450e-01" nType="0">
        <Node pos="l" depth="1" NCoef="0" IVar="12" Cut="4.3403081595897675e-02" cType="1" res="4.9457219243049622e-01" rms="4.0748310275375843e-03" purity="1.0000000000000000e+00" nType="0">
          <Node pos="l" depth="2" NCoef="0" IVar="-1" Cut="0.0000000000000000e+00" cType="1" res="5.8316905051469803e-04" rms="3.3864285796880722e-04" purity="1.0000000000000000e+00" nType="-99"/>
          <Node pos="r" depth="2" NCoef="0" IVar="-1" Cut="0.0000000000000000e+00" cType="1" res="1.8540369637776166e-04" rms="3.3606164606680977e-07" purity="1.0000000000000000e+00" nType="-99"/>
        </Node>
        <Node pos="r" depth="1" NCoef="0" IVar="3" Cut="9.5714282989501953e+00" cType="1" res="-6.1387721449136734e-02" rms="4.9576115608215332e-01" purity="4.3811827898025513e-01" nType="0">
          <Node pos="l" depth="2" NCoef="0" IVar="-1" Cut="0.0000000000000000e+00" cType="1" res="-8.9491513790562749e-06" rms="4.9940431118011475e-01" purity="4.7569596767425537e-01" nType="-99"/>
          <Node pos="r" depth="2" NCoef="0" IVar="-1" Cut="0.0000000000000000e+00" cType="1" res="-2.3673893883824348e-04" rms="8.3658121526241302e-02" purity="7.0873466320335865e-03" nType="-99"/>
        </Node>
      </Node>
    </BinaryTree>
    <BinaryTree type="DecisionTree" boostWeight="1.0000000000000000e+00" itree="23">
      <Node pos="s" depth="0" NCoef="0" IVar="3" Cut="-3.7619047164916992e+00" cType="1" res="2.2840373218059540e-02" rms="4.9836966395378113e-01" purity="5.2283757925033569e-01" nType="0">
        <Node pos="l" depth="1" NCoef="0" IVar="12" Cut="4.3061081320047379e-02" cType="1" res="4.9530303478240967e-01" rms="3.8846198003739119e-03" purity="1.0000000000000000e+00" nType="0">
          <Node pos="l" depth="2" NCoef="0" IVar="-1" Cut="0.0000000000000000e+00" cType="1" res="5.8776972582563758e-04" rms="4.2591459532559384e-06" purity="1.0000000000000000e+00" nType="-99"/>
          <Node pos="r" depth="2" NCoef="0" IVar="-1" Cut="0.0000000000000000e+00" cType="1" res="1.2405464076437056e-04" rms="8.3553342847153544e-05" purity="1.0000000000000000e+00" nType="-99"/>
        </Node>
        <Node pos="r" depth="1" NCoef="0" IVar="3" Cut="1.0714285850524902e+01" cType="1" res="-4.3276652693748474e-02" rms="4.9751225113868713e-01" purity="4.5606279373168945e-01" nType="0">
          <Node pos="l" depth="2" NCoef="0" IVar="-1" Cut="0.0000000000000000e+00" cType="1" res="3.7789418456668500e-06" rms="4.9990794062614441e-01" purity="5.0915050506591797e-01" nType="-99"/>
          <Node pos="r" depth="2" NCoef="0" IVar="-1" Cut="0.0000000000000000e+00" cType="1" res="-1.7015748017001897e-04" rms="4.9499905435368419e-04" purity="0.0000000000000000e+00" nType="-99"/>
        </Node>
      </Node>
    </BinaryTree>
    <BinaryTree type="DecisionTree" boostWeight="1.0000000000000000e+00" itree="24">
      <Node pos="s" depth="0" NCoef="0" IVar="3" Cut="-3.7619047164916992e+00" cType="1" res="4.1984915733337402e-02" rms="4.9705469608306885e-01" purity="5.4195648431777954e-01" nType="0">
        <Node pos="l" depth="1" NCoef="0" IVar="12" Cut="4.3101135641336441e-02" cType="1" res="4.9570953845977783e-01" rms="3.7055574357509613e-03" purity="1.0000000000000000e+00" nType="0">
          <Node pos="l" depth="2" NCoef="0" IVar="-1" Cut="0.0000000000000000e+00" cType="1" res="2.1229556296020746e-03" rms="4.3445990741020069e-05" purity="1.0000000000000000e+00" nType="-99"/>
          <Node pos="r" depth="2" NCoef="0" IVar="-1" Cut="0.0000000000000000e+00" cType="1" res="1.1902763799298555e-04" rms="2.9257666028570384e-05" purity="1.0000000000000000e+00" nType="-99"/>
        </Node>
        <Node pos="r" depth="1" NCoef="0" IVar="3" Cut="1.0714285850524902e+01" cType="1" res="-3.1273178756237030e-02" rms="4.9834334850311279e-01" purity="4.6800103783607483e-01" nType="0">
          <Node pos="l" depth="2" NCoef="0" IVar="-1" Cut="0.0000000000000000e+00" cType="1" res="1.1163459021190647e-05" rms="4.9931579828262329e-01" purity="5.2604073286056519e-01" nType="-99"/>
          <Node pos="r" depth="2" NCoef="0" IVar="-1" Cut="0.0000000000000000e+00" cType="1" res="-1.2244393292348832e-04" rms="5.5877858540043235e-04" purity="0.0000000000000000e+00" nType="-99"/>
        </Node>
      </Node>
    </BinaryTree>
    <BinaryTree type="DecisionTree" boostWeight="1.0000000000000000e+00" itree="25">
      <Node pos="s" depth="0" NCoef="0" IVar="3" Cut="-3.7619047164916992e+00" cType="1" res="-9.0341521427035332e-03" rms="4.9879685044288635e-01" purity="4.9104440212249756e-01" nType="0">
        <Node pos="l" depth="1" NCoef="0" IVar="12" Cut="4.3227102607488632e-02" cType="1" res="4.9335023760795593e-01" rms="4.8424187116324902e-03" purity="1.0000000000000000e+00" nType="0">
          <Node pos="l" depth="2" NCoef="0" IVar="-1" Cut="0.0000000000000000e+00" cType="1" res="6.5918068867176771e-04" rms="3.2181310234591365e-04" purity="1.0000000000000000e+00" nType="-99"/>
          <Node pos="r" depth="2" NCoef="0" IVar="-1" Cut="0.0000000000000000e+00" cType="1" res="2.5683332933112979e-04" rms="2.3011330995359458e-05" purity="1.0000000000000000e+00" nType="-99"/>
        </Node>
        <Node pos="r" depth="1" NCoef="0" IVar="3" Cut="1.0714285850524902e+01" cType="1" res="-6.0766614973545074e-02" rms="4.9573153257369995e-01" purity="4.3863525986671448e-01" nType="0">
          <Node pos="l" depth="2" NCoef="0" IVar="-1" Cut="0.0000000000000000e+00" cType="1" res="-7.6491060099215247e-06" rms="4.9970623850822449e-01" purity="4.8306441307067871e-01" nType="-99"/>
          <Node pos="r" depth="2" NCoef="0" IVar="-1" Cut="0.0000000000000000e+00" cType="1" res="-2.2838130826130509e-04" rms="5.2210938883945346e-04" purity="0.0000000000000000e+00" nType="-99"/>
        </Node>
      </Node>
    </BinaryTree>
    <BinaryTree type="DecisionTree" boostWeight="1.0000000000000000e+00" itree="26">
      <Node pos="s" depth="0" NCoef="0" IVar="3" Cut="-3.7619047164916992e+00" cType="1" res="-3.3590715378522873e-02" rms="4.9765029549598694e-01" purity="4.6663308143615723e-01" nType="0">
        <Node pos="l" depth="1" NCoef="0" IVar="12" Cut="4.3061081320047379e-02" cType="1" res="4.9300655722618103e-01" rms="4.9542118795216084e-03" purity="1.0000000000000000e+00" nType="0">
          <Node pos="l" depth="2" NCoef="0" IVar="-1" Cut="0.0000000000000000e+00" cType="1" res="7.3240650817751884e-04" rms="1.1025852586499241e-07" purity="1.0000000000000000e+00" nType="-99"/>
          <Node pos="r" depth="2" NCoef="0" IVar="-1" Cut="0.0000000000000000e+00" cType="1" res="1.8024761811830103e-04" rms="1.2942505418322980e-04" purity="1.0000000000000000e+00" nType="-99"/>
        </Node>
        <Node pos="r" depth="1" NCoef="0" IVar="3" Cut="1.0714285850524902e+01" cType="1" res="-9.6207186579704285e-02" rms="4.9010875821113586e-01" purity="4.0321162343025208e-01" nType="0">
          <Node pos="l" depth="2" NCoef="0" IVar="-1" Cut="0.0000000000000000e+00" cType="1" res="-2.6456555133336224e-05" rms="4.9660819768905640e-01" purity="4.4188410043716431e-01" nType="-99"/>
          <Node pos="r" depth="2" NCoef="0" IVar="-1" Cut="0.0000000000000000e+00" cType="1" res="-2.6951500331051648e-04" rms="5.0261669093742967e-04" purity="0.0000000000000000e+00" nType="-99"/>
        </Node>
      </Node>
    </BinaryTree>
    <BinaryTree type="DecisionTree" boostWeight="1.0000000000000000e+00" itree="27">
      <Node pos="s" depth="0" NCoef="0" IVar="3" Cut="-3.7619047164916992e+00" cType="1" res="1.3437082059681416e-02" rms="4.9852672219276428e-01" purity="5.1374745368957520e-01" nType="0">
        <Node pos="l" depth="1" NCoef="0" IVar="12" Cut="4.3131440877914429e-02" cType="1" res="4.9331486225128174e-01" rms="5.0221877172589302e-03" purity="1.0000000000000000e+00" nType="0">
          <Node pos="l" depth="2" NCoef="0" IVar="-1" Cut="0.0000000000000000e+00" cType="1" res="3.4205228439532220e-04" rms="2.1961875609122217e-04" purity="1.0000000000000000e+00" nType="-99"/>
          <Node pos="r" depth="2" NCoef="0" IVar="-1" Cut="0.0000000000000000e+00" cType="1" res="1.3331587251741439e-04" rms="1.9260056433267891e-05" purity="1.0000000000000000e+00" nType="-99"/>
        </Node>
        <Node pos="r" depth="1" NCoef="0" IVar="3" Cut="1.0714285850524902e+01" cType="1" res="-5.4820362478494644e-02" rms="4.9644896388053894e-01" purity="4.4458323717117310e-01" nType="0">
          <Node pos="l" depth="2" NCoef="0" IVar="-1" Cut="0.0000000000000000e+00" cType="1" res="-5.8208206610288471e-06" rms="4.9978688359260559e-01" purity="4.8556905984878540e-01" nType="-99"/>
          <Node pos="r" depth="2" NCoef="0" IVar="-1" Cut="0.0000000000000000e+00" cType="1" res="-2.5799323339015245e-04" rms="5.2867468912154436e-04" purity="0.0000000000000000e+00" nType="-99"/>
        </Node>
      </Node>
    </BinaryTree>
    <BinaryTree type="DecisionTree" boostWeight="1.0000000000000000e+00" itree="28">
      <Node pos="s" depth="0" NCoef="0" IVar="3" Cut="-3.7619047164916992e+00" cType="1" res="1.9528612494468689e-02" rms="4.9845671653747559e-01" purity="5.1977634429931641e-01" nType="0">
        <Node pos="l" depth="1" NCoef="0" IVar="12" Cut="4.3061081320047379e-02" cType="1" res="4.9392414093017578e-01" rms="4.8844800330698490e-03" purity="1.0000000000000000e+00" nType="0">
          <Node pos="l" depth="2" NCoef="0" IVar="-1" Cut="0.0000000000000000e+00" cType="1" res="6.8273243959993124e-04" rms="5.6832351447155816e-07" purity="1.0000000000000000e+00" nType="-99"/>
          <Node pos="r" depth="2" NCoef="0" IVar="-1" Cut="0.0000000000000000e+00" cType="1" res="1.4501639816444367e-04" rms="5.7588229537941515e-05" purity="1.0000000000000000e+00" nType="-99"/>
        </Node>
        <Node pos="r" depth="1" NCoef="0" IVar="3" Cut="1.0714285850524902e+01" cType="1" res="-4.5603778213262558e-02" rms="4.9742075800895691e-01" purity="4.5384377241134644e-01" nType="0">
          <Node pos="l" depth="2" NCoef="0" IVar="-1" Cut="0.0000000000000000e+00" cType="1" res="-4.0019835978455376e-06" rms="4.9988752603530884e-01" purity="4.8980703949928284e-01" nType="-99"/>
          <Node pos="r" depth="2" NCoef="0" IVar="-1" Cut="0.0000000000000000e+00" cType="1" res="-1.8357732915319502e-04" rms="5.5804062867537141e-04" purity="0.0000000000000000e+00" nType="-99"/>
        </Node>
      </Node>
    </BinaryTree>
    <BinaryTree type="DecisionTree" boostWeight="1.0000000000000000e+00" itree="29">
      <Node pos="s" depth="0" NCoef="0" IVar="3" Cut="-3.7619047164916992e+00" cType="1" res="9.0498197823762894e-03" rms="4.9877583980560303e-01" purity="5.0940048694610596e-01" nType="0">
        <Node pos="l" depth="1" NCoef="0" IVar="12" Cut="4.3131634593009949e-02" cType="1" res="4.9462908506393433e-01" rms="4.6252650208771229e-03" purity="1.0000000000000000e+00" nType="0">
          <Node pos="l" depth="2" NCoef="0" IVar="-1" Cut="0.0000000000000000e+00" cType="1" res="5.7088583707809448e-04" rms="2.0298725576139987e-04" purity="1.0000000000000000e+00" nType="-99"/>
          <Node pos="r" depth="2" NCoef="0" IVar="-1" Cut="0.0000000000000000e+00" cType="1" res="1.1516482481965795e-04" rms="1.1734822692233138e-05" purity="1.0000000000000000e+00" nType="-99"/>
        </Node>
        <Node pos="r" depth="1" NCoef="0" IVar="3" Cut="9.5714282989501953e+00" cType="1" res="-7.2880201041698456e-02" rms="4.9421957135200500e-01" purity="4.2662340402603149e-01" nType="0">
          <Node pos="l" depth="2" NCoef="0" IVar="-1" Cut="0.0000000000000000e+00" cType="1" res="-1.7968857719097286e-05" rms="4.9813318252563477e-01" purity="4.5687416195869446e-01" nType="-99"/>
          <Node pos="r" depth="2" NCoef="0" IVar="-1" Cut="0.0000000000000000e+00" cType="1" res="-2.0646750926971436e-03" rms="8.8335141539573669e-02" purity="7.9186428338289261e-03" nType="-99"/>
        </Node>
      </Node>
    </BinaryTree>
    <BinaryTree type="DecisionTree" boostWeight="1.0000000000000000e+00" itree="30">
      <Node pos="s" depth="0" NCoef="0" IVar="3" Cut="-3.7619047164916992e+00" cType="1" res="9.2518180608749390e-03" rms="4.9837154150009155e-01" purity="5.0944697856903076e-01" nType="0">
        <Node pos="l" depth="1" NCoef="0" IVar="12" Cut="4.3061081320047379e-02" cType="1" res="4.9290123581886292e-01" rms="5.3124199621379375e-03" purity="1.0000000000000000e+00" nType="0">
          <Node pos="l" depth="2" NCoef="0" IVar="-1" Cut="0.0000000000000000e+00" cType="1" res="3.1839986331760883e-04" rms="7.3082185281236889e-07" purity="1.0000000000000000e+00" nType="-99"/>
          <Node pos="r" depth="2" NCoef="0" IVar="-1" Cut="0.0000000000000000e+00" cType="1" res="1.3578627840615809e-04" rms="3.6721939977724105e-05" purity="1.0000000000000000e+00" nType="-99"/>
        </Node>
        <Node pos="r" depth="1" NCoef="0" IVar="3" Cut="1.0714285850524902e+01" cType="1" res="-6.1377208679914474e-02" rms="4.9547237157821655e-01" purity="4.3780976533889771e-01" nType="0">
          <Node pos="l" depth="2" NCoef="0" IVar="-1" Cut="0.0000000000000000e+00" cType="1" res="-6.1050059230183251e-06" rms="4.9978685379028320e-01" purity="4.8564574122428894e-01" nType="-99"/>
          <Node pos="r" depth="2" NCoef="0" IVar="-1" Cut="0.0000000000000000e+00" cType="1" res="-2.1453015506267548e-04" rms="5.0740881124511361e-04" purity="0.0000000000000000e+00" nType="-99"/>
        </Node>
      </Node>
    </BinaryTree>
    <BinaryTree type="DecisionTree" boostWeight="1.0000000000000000e+00" itree="31">
      <Node pos="s" depth="0" NCoef="0" IVar="3" Cut="-3.7619047164916992e+00" cType="1" res="-7.5067710131406784e-03" rms="4.9866425991058350e-01" purity="4.9252277612686157e-01" nType="0">
        <Node pos="l" depth="1" NCoef="0" IVar="12" Cut="4.3061081320047379e-02" cType="1" res="4.9184203147888184e-01" rms="5.4541761055588722e-03" purity="1.0000000000000000e+00" nType="0">
          <Node pos="l" depth="2" NCoef="0" IVar="-1" Cut="0.0000000000000000e+00" cType="1" res="3.6526602343656123e-04" rms="4.5722532604486332e-07" purity="1.0000000000000000e+00" nType="-99"/>
          <Node pos="r" depth="2" NCoef="0" IVar="-1" Cut="0.0000000000000000e+00" cType="1" res="3.1471523107029498e-04" rms="1.1460034875199199e-04" purity="1.0000000000000000e+00" nType="-99"/>
        </Node>
        <Node pos="r" depth="1" NCoef="0" IVar="3" Cut="9.5714282989501953e+00" cType="1" res="-5.3766656666994095e-02" rms="4.9644741415977478e-01" purity="4.4550988078117371e-01" nType="0">
          <Node pos="l" depth="2" NCoef="0" IVar="-1" Cut="0.0000000000000000e+00" cType="1" res="-4.8679817155061755e-06" rms="4.9981856346130371e-01" purity="4.8664936423301697e-01" nType="-99"/>
          <Node pos="r" depth="2" NCoef="0" IVar="-1" Cut="0.0000000000000000e+00" cType="1" res="-2.0059623057022691e-04" rms="6.3337042927742004e-02" purity="4.0567596442997456e-03" nType="-99"/>
        </Node>
      </Node>
    </BinaryTree>
    <BinaryTree type="DecisionTree" boostWeight="1.0000000000000000e+00" itree="32">
      <Node pos="s" depth="0" NCoef="0" IVar="3" Cut="-3.7619047164916992e+00" cType="1" res="2.1422483026981354e-02" rms="4.9825555086135864e-01" purity="5.2164304256439209e-01" nType="0">
        <Node pos="l" depth="1" NCoef="0" IVar="12" Cut="4.3015021830797195e-02" cType="1" res="4.9369353055953979e-01" rms="5.0490512512624264e-03" purity="1.0000000000000000e+00" nType="0">
          <Node pos="l" depth="2" NCoef="0" IVar="-1" Cut="0.0000000000000000e+00" cType="1" res="1.8817391246557236e-03" rms="5.8902010380279535e-08" purity="1.0000000000000000e+00" nType="-99"/>
          <Node pos="r" depth="2" NCoef="0" IVar="-1" Cut="0.0000000000000000e+00" cType="1" res="1.4139282575342804e-04" rms="9.4417548098135740e-05" purity="1.0000000000000000e+00" nType="-99"/>
        </Node>
        <Node pos="r" depth="1" NCoef="0" IVar="3" Cut="1.0714285850524902e+01" cType="1" res="-4.6377558261156082e-02" rms="4.9727109074592590e-01" purity="4.5296931266784668e-01" nType="0">
          <Node pos="l" depth="2" NCoef="0" IVar="-1" Cut="0.0000000000000000e+00" cType="1" res="-4.4797825466957875e-06" rms="4.9987152218818665e-01" purity="4.8887151479721069e-01" nType="-99"/>
          <Node pos="r" depth="2" NCoef="0" IVar="-1" Cut="0.0000000000000000e+00" cType="1" res="-4.5930853229947388e-04" rms="5.2940967725589871e-04" purity="0.0000000000000000e+00" nType="-99"/>
        </Node>
      </Node>
    </BinaryTree>
    <BinaryTree type="DecisionTree" boostWeight="1.0000000000000000e+00" itree="33">
      <Node pos="s" depth="0" NCoef="0" IVar="3" Cut="-3.7619047164916992e+00" cType="1" res="1.3043946586549282e-02" rms="4.9843999743461609e-01" purity="5.1320797204971313e-01" nType="0">
        <Node pos="l" depth="1" NCoef="0" IVar="12" Cut="4.3562952429056168e-02" cType="1" res="4.9206045269966125e-01" rms="5.8225071988999844e-03" purity="1.0000000000000000e+00" nType="0">
          <Node pos="l" depth="2" NCoef="0" IVar="-1" Cut="0.0000000000000000e+00" cType="1" res="4.1136099025607109e-04" rms="2.4330269661732018e-04" purity="1.0000000000000000e+00" nType="-99"/>
          <Node pos="r" depth="2" NCoef="0" IVar="-1" Cut="0.0000000000000000e+00" cType="1" res="1.6194708587136120e-04" rms="4.0467011075406845e-08" purity="1.0000000000000000e+00" nType="-99"/>
        </Node>
        <Node pos="r" depth="1" NCoef="0" IVar="3" Cut="1.0714285850524902e+01" cType="1" res="-4.1953869163990021e-02" rms="4.9758780002593994e-01" purity="4.5731744170188904e-01" nType="0">
          <Node pos="l" depth="2" NCoef="0" IVar="-1" Cut="0.0000000000000000e+00" cType="1" res="-9.4097583769325865e-07" rms="4.9998310208320618e-01" purity="4.9743479490280151e-01" nType="-99"/>
          <Node pos="r" depth="2" NCoef="0" IVar="-1" Cut="0.0000000000000000e+00" cType="1" res="-2.8941221535205841e-04" rms="5.2158528706058860e-04" purity="0.0000000000000000e+00" nType="-99"/>
        </Node>
      </Node>
    </BinaryTree>
    <BinaryTree type="DecisionTree" boostWeight="1.0000000000000000e+00" itree="34">
      <Node pos="s" depth="0" NCoef="0" IVar="3" Cut="-3.7619047164916992e+00" cType="1" res="-4.7694393433630466e-03" rms="4.9871340394020081e-01" purity="4.9549278616905212e-01" nType="0">
        <Node pos="l" depth="1" NCoef="0" IVar="12" Cut="4.3315585702657700e-02" cType="1" res="4.9252521991729736e-01" rms="5.7509196922183037e-03" purity="1.0000000000000000e+00" nType="0">
          <Node pos="l" depth="2" NCoef="0" IVar="-1" Cut="0.0000000000000000e+00" cType="1" res="1.8250778084620833e-03" rms="4.0907080983743072e-04" purity="1.0000000000000000e+00" nType="-99"/>
          <Node pos="r" depth="2" NCoef="0" IVar="-1" Cut="0.0000000000000000e+00" cType="1" res="1.7565450980328023e-04" rms="5.2985024012741633e-06" purity="1.0000000000000000e+00" nType="-99"/>
        </Node>
        <Node pos="r" depth="1" NCoef="0" IVar="3" Cut="1.0714285850524902e+01" cType="1" res="-6.4548052847385406e-02" rms="4.9528524279594421e-01" purity="4.3484720587730408e-01" nType="0">
          <Node pos="l" depth="2" NCoef="0" IVar="-1" Cut="0.0000000000000000e+00" cType="1" res="-1.4515663679048885e-05" rms="4.9871540069580078e-01" purity="4.6429753303527832e-01" nType="-99"/>
          <Node pos="r" depth="2" NCoef="0" IVar="-1" Cut="0.0000000000000000e+00" cType="1" res="-2.0860566291958094e-03" rms="5.3548032883554697e-04" purity="0.0000000000000000e+00" nType="-99"/>
        </Node>
      </Node>
    </BinaryTree>
    <BinaryTree type="DecisionTree" boostWeight="1.0000000000000000e+00" itree="35">
      <Node pos="s" depth="0" NCoef="0" IVar="3" Cut="-3.7619047164916992e+00" cType="1" res="2.8105271048843861e-03" rms="4.9858158826828003e-01" purity="5.0273543596267700e-01" nType="0">
        <Node pos="l" depth="1" NCoef="0" IVar="12" Cut="4.3016966432332993e-02" cType="1" res="4.9294221401214600e-01" rms="5.8679301291704178e-03" purity="1.0000000000000000e+00" nType="0">
          <Node pos="l" depth="2" NCoef="0" IVar="-1" Cut="0.0000000000000000e+00" cType="1" res="2.0148819312453270e-03" rms="5.1619135632563484e-08" purity="1.0000000000000000e+00" nType="-99"/>
          <Node pos="r" depth="2" NCoef="0" IVar="-1" Cut="0.0000000000000000e+00" cType="1" res="1.3022097118664533e-04" rms="1.0840580944204703e-04" purity="1.0000000000000000e+00" nType="-99"/>
        </Node>
        <Node pos="r" depth="1" NCoef="0" IVar="3" Cut="1.0714285850524902e+01" cType="1" res="-5.2212331444025040e-02" rms="4.9647772312164307e-01" purity="4.4691184163093567e-01" nType="0">
          <Node pos="l" depth="2" NCoef="0" IVar="-1" Cut="0.0000000000000000e+00" cType="1" res="-4.1302300815004855e-06" rms="4.9986961483955383e-01" purity="4.8901543021202087e-01" nType="-99"/>
          <Node pos="r" depth="2" NCoef="0" IVar="-1" Cut="0.0000000000000000e+00" cType="1" res="-1.6882533964235336e-04" rms="4.8152683302760124e-04" purity="0.0000000000000000e+00" nType="-99"/>
        </Node>
      </Node>
    </BinaryTree>
    <BinaryTree type="DecisionTree" boostWeight="1.0000000000000000e+00" itree="36">
      <Node pos="s" depth="0" NCoef="0" IVar="3" Cut="1.1095237731933594e+01" cType="1" res="2.6296214200556278e-03" rms="4.9826368689537048e-01" purity="5.0240707397460938e-01" nType="0">
        <Node pos="l" depth="1" NCoef="0" IVar="3" Cut="-3.5714285373687744e+00" cType="1" res="5.8492075651884079e-02" rms="4.9567821621894836e-01" purity="5.5929416418075562e-01" nType="0">
          <Node pos="l" depth="2" NCoef="0" IVar="-1" Cut="0.0000000000000000e+00" cType="1" res="4.2759766802191734e-04" rms="6.8345060572028160e-03" purity="1.0000000000000000e+00" nType="-99"/>
          <Node pos="r" depth="2" NCoef="0" IVar="-1" Cut="0.0000000000000000e+00" cType="1" res="5.9415674513729755e-06" rms="4.9978786706924438e-01" purity="5.1442331075668335e-01" nType="-99"/>
        </Node>
        <Node pos="r" depth="1" NCoef="0" IVar="10" Cut="9.7072887420654297e-01" cType="1" res="-4.9072834849357605e-01" rms="5.3727650083601475e-04" purity="0.0000000000000000e+00" nType="0">
          <Node pos="l" depth="2" NCoef="0" IVar="-1" Cut="0.0000000000000000e+00" cType="1" res="-1.6418748418800533e-04" rms="4.4284274918027222e-04" purity="0.0000000000000000e+00" nType="-99"/>
          <Node pos="r" depth="2" NCoef="0" IVar="-1" Cut="0.0000000000000000e+00" cType="1" res="-1.5592969430144876e-04" rms="4.1508005233481526e-04" purity="0.0000000000000000e+00" nType="-99"/>
        </Node>
      </Node>
    </BinaryTree>
    <BinaryTree type="DecisionTree" boostWeight="1.0000000000000000e+00" itree="37">
      <Node pos="s" depth="0" NCoef="0" IVar="3" Cut="-3.7619047164916992e+00" cType="1" res="-2.6869314024224877e-04" rms="4.9832588434219360e-01" purity="4.9992066621780396e-01" nType="0">
        <Node pos="l" depth="1" NCoef="0" IVar="12" Cut="4.3084356933832169e-02" cType="1" res="4.9230012297630310e-01" rms="6.3319932669401169e-03" purity="1.0000000000000000e+00" nType="0">
          <Node pos="l" depth="2" NCoef="0" IVar="-1" Cut="0.0000000000000000e+00" cType="1" res="6.2493520090356469e-04" rms="8.0330042692366987e-05" purity="1.0000000000000000e+00" nType="-99"/>
          <Node pos="r" depth="2" NCoef="0" IVar="-1" Cut="0.0000000000000000e+00" cType="1" res="1.3448834943119437e-04" rms="9.9942604720126837e-05" purity="1.0000000000000000e+00" nType="-99"/>
        </Node>
        <Node pos="r" depth="1" NCoef="0" IVar="3" Cut="1.0714285850524902e+01" cType="1" res="-7.1734540164470673e-02" rms="4.9400725960731506e-01" purity="4.2736515402793884e-01" nType="0">
          <Node pos="l" depth="2" NCoef="0" IVar="-1" Cut="0.0000000000000000e+00" cType="1" res="-1.8442508007865399e-05" rms="4.9896523356437683e-01" purity="4.6798101067543030e-01" nType="-99"/>
          <Node pos="r" depth="2" NCoef="0" IVar="-1" Cut="0.0000000000000000e+00" cType="1" res="-2.8453781851567328e-04" rms="5.0832709530368447e-04" purity="0.0000000000000000e+00" nType="-99"/>
        </Node>
      </Node>
    </BinaryTree>
    <BinaryTree type="DecisionTree" boostWeight="1.0000000000000000e+00" itree="38">
      <Node pos="s" depth="0" NCoef="0" IVar="3" Cut="-3.7619047164916992e+00" cType="1" res="2.9694957658648491e-02" rms="4.9747174978256226e-01" purity="5.2973622083663940e-01" nType="0">
        <Node pos="l" depth="1" NCoef="0" IVar="12" Cut="4.3061081320047379e-02" cType="1" res="4.9249130487442017e-01" rms="6.2982258386909962e-03" purity="1.0000000000000000e+00" nType="0">
          <Node pos="l" depth="2" NCoef="0" IVar="-1" Cut="0.0000000000000000e+00" cType="1" res="2.0060520619153976e-03" rms="3.4224209230160341e-05" purity="1.0000000000000000e+00" nType="-99"/>
          <Node pos="r" depth="2" NCoef="0" IVar="-1" Cut="0.0000000000000000e+00" cType="1" res="1.3766947085969150e-04" rms="8.2068843767046928e-05" purity="1.0000000000000000e+00" nType="-99"/>
        </Node>
        <Node pos="r" depth="1" NCoef="0" IVar="3" Cut="1.0714285850524902e+01" cType="1" res="-3.2823011279106140e-02" rms="4.9805861711502075e-01" purity="4.6620947122573853e-01" nType="0">
          <Node pos="l" depth="2" NCoef="0" IVar="-1" Cut="0.0000000000000000e+00" cType="1" res="5.4605193327006418e-06" rms="4.9982470273971558e-01" purity="5.1317936182022095e-01" nType="-99"/>
          <Node pos="r" depth="2" NCoef="0" IVar="-1" Cut="0.0000000000000000e+00" cType="1" res="-1.4401288353838027e-04" rms="5.3983641555532813e-04" purity="0.0000000000000000e+00" nType="-99"/>
        </Node>
      </Node>
    </BinaryTree>
    <BinaryTree type="DecisionTree" boostWeight="1.0000000000000000e+00" itree="39">
      <Node pos="s" depth="0" NCoef="0" IVar="3" Cut="-3.7619047164916992e+00" cType="1" res="-3.4447703510522842e-02" rms="4.9714314937591553e-01" purity="4.6550449728965759e-01" nType="0">
        <Node pos="l" depth="1" NCoef="0" IVar="12" Cut="4.3095368891954422e-02" cType="1" res="4.8975616693496704e-01" rms="7.3914597742259502e-03" purity="1.0000000000000000e+00" nType="0">
          <Node pos="l" depth="2" NCoef="0" IVar="-1" Cut="0.0000000000000000e+00" cType="1" res="6.3457840587943792e-04" rms="4.9724851123755798e-05" purity="1.0000000000000000e+00" nType="-99"/>
          <Node pos="r" depth="2" NCoef="0" IVar="-1" Cut="0.0000000000000000e+00" cType="1" res="1.9345521286595613e-04" rms="1.9145780242979527e-04" purity="1.0000000000000000e+00" nType="-99"/>
        </Node>
        <Node pos="r" depth="1" NCoef="0" IVar="3" Cut="1.0714285850524902e+01" cType="1" res="-8.2337513566017151e-02" rms="4.9226814508438110e-01" purity="4.1667446494102478e-01" nType="0">
          <Node pos="l" depth="2" NCoef="0" IVar="-1" Cut="0.0000000000000000e+00" cType="1" res="-1.5751635146443732e-05" rms="4.9832758307456970e-01" purity="4.5924571156501770e-01" nType="-99"/>
          <Node pos="r" depth="2" NCoef="0" IVar="-1" Cut="0.0000000000000000e+00" cType="1" res="-1.8281143275089562e-04" rms="5.3159019444137812e-04" purity="0.0000000000000000e+00" nType="-99"/>
        </Node>
      </Node>
    </BinaryTree>
    <BinaryTree type="DecisionTree" boostWeight="1.0000000000000000e+00" itree="40">
      <Node pos="s" depth="0" NCoef="0" IVar="3" Cut="-3.7619047164916992e+00" cType="1" res="4.7652050852775574e-03" rms="4.9801853299140930e-01" purity="5.0484383106231689e-01" nType="0">
        <Node pos="l" depth="1" NCoef="0" IVar="12" Cut="4.3020788580179214e-02" cType="1" res="4.9208357930183411e-01" rms="6.7773596383631229e-03" purity="1.0000000000000000e+00" nType="0">
          <Node pos="l" depth="2" NCoef="0" IVar="-1" Cut="0.0000000000000000e+00" cType="1" res="1.9312629010528326e-03" rms="0.0000000000000000e+00" purity="1.0000000000000000e+00" nType="-99"/>
          <Node pos="r" depth="2" NCoef="0" IVar="-1" Cut="0.0000000000000000e+00" cType="1" res="1.1168076161993667e-04" rms="1.9021234766114503e-04" purity="1.0000000000000000e+00" nType="-99"/>
        </Node>
        <Node pos="r" depth="1" NCoef="0" IVar="3" Cut="1.0714285850524902e+01" cType="1" res="-7.1431130170822144e-02" rms="4.9381974339485168e-01" purity="4.2742195725440979e-01" nType="0">
          <Node pos="l" depth="2" NCoef="0" IVar="-1" Cut="0.0000000000000000e+00" cType="1" res="-8.6321197159122676e-06" rms="4.9960064888000488e-01" purity="4.8009744286537170e-01" nType="-99"/>
          <Node pos="r" depth="2" NCoef="0" IVar="-1" Cut="0.0000000000000000e+00" cType="1" res="-1.8628237012308091e-04" rms="4.6710265451110899e-04" purity="0.0000000000000000e+00" nType="-99"/>
        </Node>
      </Node>
    </BinaryTree>
    <BinaryTree type="DecisionTree" boostWeight="1.0000000000000000e+00" itree="41">
      <Node pos="s" depth="0" NCoef="0" IVar="3" Cut="-3.7619047164916992e+00" cType="1" res="-2.9089370742440224e-02" rms="4.9742797017097473e-01" purity="4.7084614634513855e-01" nType="0">
        <Node pos="l" depth="1" NCoef="0" IVar="12" Cut="4.3087519705295563e-02" cType="1" res="4.9001264572143555e-01" rms="7.8041148371994495e-03" purity="1.0000000000000000e+00" nType="0">
          <Node pos="l" depth="2" NCoef="0" IVar="-1" Cut="0.0000000000000000e+00" cType="1" res="1.9461398478597403e-03" rms="1.4616432599723339e-04" purity="1.0000000000000000e+00" nType="-99"/>
          <Node pos="r" depth="2" NCoef="0" IVar="-1" Cut="0.0000000000000000e+00" cType="1" res="2.2098506451584399e-04" rms="9.5169831183739007e-05" purity="1.0000000000000000e+00" nType="-99"/>
        </Node>
        <Node pos="r" depth="1" NCoef="0" IVar="3" Cut="1.0714285850524902e+01" cType="1" res="-7.9291336238384247e-02" rms="4.9272480607032776e-01" purity="4.1967204213142395e-01" nType="0">
          <Node pos="l" depth="2" NCoef="0" IVar="-1" Cut="0.0000000000000000e+00" cType="1" res="-1.5232923033181578e-05" rms="4.9872559309005737e-01" purity="4.6447023749351501e-01" nType="-99"/>
          <Node pos="r" depth="2" NCoef="0" IVar="-1" Cut="0.0000000000000000e+00" cType="1" res="-2.1006887254770845e-04" rms="4.7577614895999432e-04" purity="0.0000000000000000e+00" nType="-99"/>
        </Node>
      </Node>
    </BinaryTree>
    <BinaryTree type="DecisionTree" boostWeight="1.0000000000000000e+00" itree="42">
      <Node pos="s" depth="0" NCoef="0" IVar="3" Cut="-3.7619047164916992e+00" cType="1" res="-1.1810239404439926e-02" rms="4.9798318743705750e-01" purity="4.8810839653015137e-01" nType="0">
        <Node pos="l" depth="1" NCoef="0" IVar="12" Cut="4.3357949703931808e-02" cType="1" res="4.8974770307540894e-01" rms="8.1818234175443649e-03" purity="1.0000000000000000e+00" nType="0">
          <Node pos="l" depth="2" NCoef="0" IVar="-1" Cut="0.0000000000000000e+00" cType="1" res="1.9078660989180207e-03" rms="3.5685501643456519e-04" purity="1.0000000000000000e+00" nType="-99"/>
          <Node pos="r" depth="2" NCoef="0" IVar="-1" Cut="0.0000000000000000e+00" cType="1" res="1.8819069373421371e-04" rms="4.1600469558034092e-06" purity="1.0000000000000000e+00" nType="-99"/>
        </Node>
        <Node pos="r" depth="1" NCoef="0" IVar="3" Cut="1.0714285850524902e+01" cType="1" res="-6.3417449593544006e-02" rms="4.9492365121841431e-01" purity="4.3543791770935059e-01" nType="0">
          <Node pos="l" depth="2" NCoef="0" IVar="-1" Cut="0.0000000000000000e+00" cType="1" res="-5.3292847042030189e-06" rms="4.9979236721992493e-01" purity="4.8580309748649597e-01" nType="-99"/>
          <Node pos="r" depth="2" NCoef="0" IVar="-1" Cut="0.0000000000000000e+00" cType="1" res="-1.4537989045493305e-04" rms="5.5518187582492828e-04" purity="0.0000000000000000e+00" nType="-99"/>
        </Node>
      </Node>
    </BinaryTree>
    <BinaryTree type="DecisionTree" boostWeight="1.0000000000000000e+00" itree="43">
      <Node pos="s" depth="0" NCoef="0" IVar="3" Cut="-3.7619047164916992e+00" cType="1" res="-2.7080496773123741e-02" rms="4.9688267707824707e-01" purity="4.7320127487182617e-01" nType="0">
        <Node pos="l" depth="1" NCoef="0" IVar="12" Cut="4.3016966432332993e-02" cType="1" res="4.8929095268249512e-01" rms="8.6078178137540817e-03" purity="1.0000000000000000e+00" nType="0">
          <Node pos="l" depth="2" NCoef="0" IVar="-1" Cut="0.0000000000000000e+00" cType="1" res="4.2820235830731690e-04" rms="0.0000000000000000e+00" purity="1.0000000000000000e+00" nType="-99"/>
          <Node pos="r" depth="2" NCoef="0" IVar="-1" Cut="0.0000000000000000e+00" cType="1" res="1.4938579988665879e-04" rms="9.5799478003755212e-05" purity="1.0000000000000000e+00" nType="-99"/>
        </Node>
        <Node pos="r" depth="1" NCoef="0" IVar="3" Cut="1.0714285850524902e+01" cType="1" res="-1.0405186563730240e-01" rms="4.8786598443984985e-01" purity="3.9467558264732361e-01" nType="0">
          <Node pos="l" depth="2" NCoef="0" IVar="-1" Cut="0.0000000000000000e+00" cType="1" res="-2.7127747671329416e-05" rms="4.9715983867645264e-01" purity="4.4680133461952209e-01" nType="-99"/>
          <Node pos="r" depth="2" NCoef="0" IVar="-1" Cut="0.0000000000000000e+00" cType="1" res="-1.6850324755068868e-04" rms="5.3646170999854803e-04" purity="0.0000000000000000e+00" nType="-99"/>
        </Node>
      </Node>
    </BinaryTree>
    <BinaryTree type="DecisionTree" boostWeight="1.0000000000000000e+00" itree="44">
      <Node pos="s" depth="0" NCoef="0" IVar="3" Cut="9.8571424484252930e+00" cType="1" res="4.8303689807653427e-02" rms="4.9577808380126953e-01" purity="5.4854279756546021e-01" nType="0">
        <Node pos="l" depth="1" NCoef="0" IVar="8" Cut="1.5319996833801270e+01" cType="1" res="9.4807088375091553e-02" rms="4.8970815539360046e-01" purity="5.9591472148895264e-01" nType="0">
          <Node pos="l" depth="2" NCoef="0" IVar="-1" Cut="0.0000000000000000e+00" cType="1" res="1.2224055535625666e-04" rms="3.9017245173454285e-01" purity="8.1049132347106934e-01" nType="-99"/>
          <Node pos="r" depth="2" NCoef="0" IVar="-1" Cut="0.0000000000000000e+00" cType="1" res="-4.1767575567064341e-06" rms="4.9985575675964355e-01" purity="4.8798650503158569e-01" nType="-99"/>
        </Node>
        <Node pos="r" depth="1" NCoef="0" IVar="10" Cut="1.9047619104385376e+00" cType="1" res="-4.8591932654380798e-01" rms="6.5397009253501892e-02" purity="4.3425499461591244e-03" nType="0">
          <Node pos="l" depth="2" NCoef="0" IVar="-1" Cut="0.0000000000000000e+00" cType="1" res="-1.6199180390685797e-04" rms="2.4602781981229782e-02" purity="6.1195337912067771e-04" nType="-99"/>
          <Node pos="r" depth="2" NCoef="0" IVar="-1" Cut="0.0000000000000000e+00" cType="1" res="-2.2829526278655976e-04" rms="1.2071868777275085e-01" purity="1.4950668439269066e-02" nType="-99"/>
        </Node>
      </Node>
    </BinaryTree>
    <BinaryTree type="DecisionTree" boostWeight="1.0000000000000000e+00" itree="45">
      <Node pos="s" depth="0" NCoef="0" IVar="3" Cut="-3.7619047164916992e+00" cType="1" res="1.1455222265794873e-03" rms="4.9809566140174866e-01" purity="5.0131434202194214e-01" nType="0">
        <Node pos="l" depth="1" NCoef="0" IVar="12" Cut="4.3060883879661560e-02" cType="1" res="4.8724839091300964e-01" rms="8.9219678193330765e-03" purity="1.0000000000000000e+00" nType="0">
          <Node pos="l" depth="2" NCoef="0" IVar="-1" Cut="0.0000000000000000e+00" cType="1" res="6.3255225541070104e-04" rms="4.2862179725489113e-06" purity="1.0000000000000000e+00" nType="-99"/>
          <Node pos="r" depth="2" NCoef="0" IVar="-1" Cut="0.0000000000000000e+00" cType="1" res="4.0794393862597644e-04" rms="2.5138250202871859e-04" purity="1.0000000000000000e+00" nType="-99"/>
        </Node>
        <Node pos="r" depth="1" NCoef="0" IVar="3" Cut="7.2857141494750977e+00" cType="1" res="-4.4645965099334717e-02" rms="4.9709838628768921e-01" purity="4.5433756709098816e-01" nType="0">
          <Node pos="l" depth="2" NCoef="0" IVar="-1" Cut="0.0000000000000000e+00" cType="1" res="9.5952225365181221e-07" rms="4.9998801946640015e-01" purity="5.0195378065109253e-01" nType="-99"/>
          <Node pos="r" depth="2" NCoef="0" IVar="-1" Cut="0.0000000000000000e+00" cType="1" res="-3.6368757719174027e-04" rms="1.4105528593063354e-01" purity="2.0629301667213440e-02" nType="-99"/>
        </Node>
      </Node>
    </BinaryTree>
    <BinaryTree type="DecisionTree" boostWeight="1.0000000000000000e+00" itree="46">
      <Node pos="s" depth="0" NCoef="0" IVar="3" Cut="-3.7619047164916992e+00" cType="1" res="-1.1340630240738392e-02" rms="4.9820858240127563e-01" purity="4.8870268464088440e-01" nType="0">
        <Node pos="l" depth="1" NCoef="0" IVar="12" Cut="4.3131440877914429e-02" cType="1" res="4.8930421471595764e-01" rms="8.6039081215858459e-03" purity="1.0000000000000000e+00" nType="0">
          <Node pos="l" depth="2" NCoef="0" IVar="-1" Cut="0.0000000000000000e+00" cType="1" res="2.0070504397153854e-03" rms="6.9646252086386085e-04" purity="1.0000000000000000e+00" nType="-99"/>
          <Node pos="r" depth="2" NCoef="0" IVar="-1" Cut="0.0000000000000000e+00" cType="1" res="1.7521926201879978e-04" rms="4.8531121137784794e-05" purity="1.0000000000000000e+00" nType="-99"/>
        </Node>
        <Node pos="r" depth="1" NCoef="0" IVar="3" Cut="1.0714285850524902e+01" cType="1" res="-5.7916555553674698e-02" rms="4.9579146504402161e-01" purity="4.4113573431968689e-01" nType="0">
          <Node pos="l" depth="2" NCoef="0" IVar="-1" Cut="0.0000000000000000e+00" cType="1" res="-7.6987480497336946e-06" rms="4.9959689378738403e-01" purity="4.8015651106834412e-01" nType="-99"/>
          <Node pos="r" depth="2" NCoef="0" IVar="-1" Cut="0.0000000000000000e+00" cType="1" res="-3.2975105568766594e-04" rms="5.1808013813570142e-04" purity="0.0000000000000000e+00" nType="-99"/>
        </Node>
      </Node>
    </BinaryTree>
    <BinaryTree type="DecisionTree" boostWeight="1.0000000000000000e+00" itree="47">
      <Node pos="s" depth="0" NCoef="0" IVar="3" Cut="-3.7619047164916992e+00" cType="1" res="1.6176871955394745e-02" rms="4.9794718623161316e-01" purity="5.1667970418930054e-01" nType="0">
        <Node pos="l" depth="1" NCoef="0" IVar="12" Cut="4.3227102607488632e-02" cType="1" res="4.8993945121765137e-01" rms="8.6578084155917168e-03" purity="1.0000000000000000e+00" nType="0">
          <Node pos="l" depth="2" NCoef="0" IVar="-1" Cut="0.0000000000000000e+00" cType="1" res="1.8476084806025028e-03" rms="9.2060206225141883e-04" purity="1.0000000000000000e+00" nType="-99"/>
          <Node pos="r" depth="2" NCoef="0" IVar="-1" Cut="0.0000000000000000e+00" cType="1" res="1.3493416190613061e-04" rms="1.0792929060698953e-05" purity="1.0000000000000000e+00" nType="-99"/>
        </Node>
        <Node pos="r" depth="1" NCoef="0" IVar="3" Cut="1.0714285850524902e+01" cType="1" res="-4.8628553748130798e-02" rms="4.9694669246673584e-01" purity="4.5056694746017456e-01" nType="0">
          <Node pos="l" depth="2" NCoef="0" IVar="-1" Cut="0.0000000000000000e+00" cType="1" res="-6.3584611780242994e-06" rms="4.9966529011726379e-01" purity="4.8185861110687256e-01" nType="-99"/>
          <Node pos="r" depth="2" NCoef="0" IVar="-1" Cut="0.0000000000000000e+00" cType="1" res="-5.3595117060467601e-04" rms="5.2018713904544711e-04" purity="0.0000000000000000e+00" nType="-99"/>
        </Node>
      </Node>
    </BinaryTree>
    <BinaryTree type="DecisionTree" boostWeight="1.0000000000000000e+00" itree="48">
      <Node pos="s" depth="0" NCoef="0" IVar="3" Cut="-3.7619047164916992e+00" cType="1" res="4.7145210206508636e-02" rms="4.9546822905540466e-01" purity="5.4771828651428223e-01" nType="0">
        <Node pos="l" depth="1" NCoef="0" IVar="12" Cut="4.3060883879661560e-02" cType="1" res="4.8807954788208008e-01" rms="9.5753259956836700e-03" purity="1.0000000000000000e+00" nType="0">
          <Node pos="l" depth="2" NCoef="0" IVar="-1" Cut="0.0000000000000000e+00" cType="1" res="4.3505569919943810e-04" rms="5.4206825552682858e-06" purity="1.0000000000000000e+00" nType="-99"/>
          <Node pos="r" depth="2" NCoef="0" IVar="-1" Cut="0.0000000000000000e+00" cType="1" res="1.5388552856165916e-04" rms="6.2051010900177062e-05" purity="1.0000000000000000e+00" nType="-99"/>
        </Node>
        <Node pos="r" depth="1" NCoef="0" IVar="3" Cut="9.5714282989501953e+00" cType="1" res="-1.6411637887358665e-02" rms="4.9879530072212219e-01" purity="4.8252579569816589e-01" nType="0">
          <Node pos="l" depth="2" NCoef="0" IVar="-1" Cut="0.0000000000000000e+00" cType="1" res="1.2932663594256155e-05" rms="4.9909242987632751e-01" purity="5.2993458509445190e-01" nType="-99"/>
          <Node pos="r" depth="2" NCoef="0" IVar="-1" Cut="0.0000000000000000e+00" cType="1" res="-2.6695241103880107e-04" rms="8.0122917890548706e-02" purity="6.5405257046222687e-03" nType="-99"/>
        </Node>
      </Node>
    </BinaryTree>
    <BinaryTree type="DecisionTree" boostWeight="1.0000000000000000e+00" itree="49">
      <Node pos="s" depth="0" NCoef="0" IVar="3" Cut="-3.7619047164916992e+00" cType="1" res="-3.9491239003837109e-03" rms="4.9779716134071350e-01" purity="4.9658894538879395e-01" nType="0">
        <Node pos="l" depth="1" NCoef="0" IVar="12" Cut="4.3014585971832275e-02" cType="1" res="4.8851346969604492e-01" rms="9.4817532226443291e-03" purity="1.0000000000000000e+00" nType="0">
          <Node pos="l" depth="2" NCoef="0" IVar="-1" Cut="0.0000000000000000e+00" cType="1" res="3.7901068571954966e-04" rms="0.0000000000000000e+00" purity="1.0000000000000000e+00" nType="-99"/>
          <Node pos="r" depth="2" NCoef="0" IVar="-1" Cut="0.0000000000000000e+00" cType="1" res="1.4166162873152643e-04" rms="2.4447275791317225e-04" purity="1.0000000000000000e+00" nType="-99"/>
        </Node>
        <Node pos="r" depth="1" NCoef="0" IVar="3" Cut="1.0714285850524902e+01" cType="1" res="-7.3451824486255646e-02" rms="4.9366411566734314e-01" purity="4.2554104328155518e-01" nType="0">
          <Node pos="l" depth="2" NCoef="0" IVar="-1" Cut="0.0000000000000000e+00" cType="1" res="-1.4181366168486420e-05" rms="4.9863040447235107e-01" purity="4.6320772171020508e-01" nType="-99"/>
          <Node pos="r" depth="2" NCoef="0" IVar="-1" Cut="0.0000000000000000e+00" cType="1" res="-2.9199029086157680e-04" rms="5.4778694175183773e-04" purity="0.0000000000000000e+00" nType="-99"/>
        </Node>
      </Node>
    </BinaryTree>
    <BinaryTree type="DecisionTree" boostWeight="1.0000000000000000e+00" itree="50">
      <Node pos="s" depth="0" NCoef="0" IVar="3" Cut="9.8571424484252930e+00" cType="1" res="6.9425897672772408e-03" rms="4.9770104885101318e-01" purity="5.0685107707977295e-01" nType="0">
        <Node pos="l" depth="1" NCoef="0" IVar="8" Cut="1.5319996833801270e+01" cType="1" res="6.4184434711933136e-02" rms="4.9459242820739746e-01" purity="5.6534796953201294e-01" nType="0">
          <Node pos="l" depth="2" NCoef="0" IVar="-1" Cut="0.0000000000000000e+00" cType="1" res="1.1990505299763754e-04" rms="3.9962878823280334e-01" purity="7.9785692691802979e-01" nType="-99"/>
          <Node pos="r" depth="2" NCoef="0" IVar="-1" Cut="0.0000000000000000e+00" cType="1" res="-1.4629750694439281e-05" rms="4.9809825420379639e-01" purity="4.5640596747398376e-01" nType="-99"/>
        </Node>
        <Node pos="r" depth="1" NCoef="0" IVar="10" Cut="1.9047619104385376e+00" cType="1" res="-4.8548397421836853e-01" rms="5.9756342321634293e-02" purity="3.6280814092606306e-03" nType="0">
          <Node pos="l" depth="2" NCoef="0" IVar="-1" Cut="0.0000000000000000e+00" cType="1" res="-1.1589955101953819e-04" rms="3.6957003176212311e-02" purity="1.3848143862560391e-03" nType="-99"/>
          <Node pos="r" depth="2" NCoef="0" IVar="-1" Cut="0.0000000000000000e+00" cType="1" res="-4.0017746505327523e-04" rms="1.0744130611419678e-01" purity="1.1814951896667480e-02" nType="-99"/>
        </Node>
      </Node>
    </BinaryTree>
    <BinaryTree type="DecisionTree" boostWeight="1.0000000000000000e+00" itree="51">
      <Node pos="s" depth="0" NCoef="0" IVar="3" Cut="8.6190471649169922e+00" cType="1" res="5.2716615609824657e-03" rms="4.9784451723098755e-01" purity="5.0531530380249023e-01" nType="0">
        <Node pos="l" depth="1" NCoef="0" IVar="3" Cut="-3.7030277252197266e+00" cType="1" res="5.5330380797386169e-02" rms="4.9566772580146790e-01" purity="5.5649119615554810e-01" nType="0">
          <Node pos="l" depth="2" NCoef="0" IVar="-1" Cut="0.0000000000000000e+00" cType="1" res="3.0562511528842151e-04" rms="9.8194554448127747e-03" purity="1.0000000000000000e+00" nType="-99"/>
          <Node pos="r" depth="2" NCoef="0" IVar="-1" Cut="0.0000000000000000e+00" cType="1" res="3.1641791338188341e-06" rms="4.9993106722831726e-01" purity="5.0757390260696411e-01" nType="-99"/>
        </Node>
        <Node pos="r" depth="1" NCoef="0" IVar="7" Cut="-9.2685394287109375e+02" cType="1" res="-4.7658562660217285e-01" rms="1.1117247492074966e-01" purity="1.2704416178166866e-02" nType="0">
          <Node pos="l" depth="2" NCoef="0" IVar="-1" Cut="0.0000000000000000e+00" cType="1" res="-1.8507499771658331e-04" rms="4.7593165072612464e-04" purity="0.0000000000000000e+00" nType="-99"/>
          <Node pos="r" depth="2" NCoef="0" IVar="-1" Cut="0.0000000000000000e+00" cType="1" res="-1.1998552508885041e-04" rms="1.5936130285263062e-01" purity="2.6460742577910423e-02" nType="-99"/>
        </Node>
      </Node>
    </BinaryTree>
    <BinaryTree type="DecisionTree" boostWeight="1.0000000000000000e+00" itree="52">
      <Node pos="s" depth="0" NCoef="0" IVar="3" Cut="-3.7619047164916992e+00" cType="1" res="5.6694131344556808e-03" rms="4.9770691990852356e-01" purity="5.0561898946762085e-01" nType="0">
        <Node pos="l" depth="1" NCoef="0" IVar="12" Cut="4.3061081320047379e-02" cType="1" res="4.8949974775314331e-01" rms="9.0232035145163536e-03" purity="1.0000000000000000e+00" nType="0">
          <Node pos="l" depth="2" NCoef="0" IVar="-1" Cut="0.0000000000000000e+00" cType="1" res="1.9215164938941598e-03" rms="6.8691115302499384e-05" purity="1.0000000000000000e+00" nType="-99"/>
          <Node pos="r" depth="2" NCoef="0" IVar="-1" Cut="0.0000000000000000e+00" cType="1" res="1.3808673247694969e-04" rms="1.4558453403878957e-04" purity="1.0000000000000000e+00" nType="-99"/>
        </Node>
        <Node pos="r" depth="1" NCoef="0" IVar="3" Cut="9.5714282989501953e+00" cType="1" res="-5.4508399218320847e-02" rms="4.9575674533843994e-01" purity="4.4412890076637268e-01" nType="0">
          <Node pos="l" depth="2" NCoef="0" IVar="-1" Cut="0.0000000000000000e+00" cType="1" res="4.9441416649642633e-07" rms="4.9998483061790466e-01" purity="5.0113916397094727e-01" nType="-99"/>
          <Node pos="r" depth="2" NCoef="0" IVar="-1" Cut="0.0000000000000000e+00" cType="1" res="-1.4496607764158398e-04" rms="6.6391333937644958e-02" purity="4.4822576455771923e-03" nType="-99"/>
        </Node>
      </Node>
    </BinaryTree>
    <BinaryTree type="DecisionTree" boostWeight="1.0000000000000000e+00" itree="53">
      <Node pos="s" depth="0" NCoef="0" IVar="3" Cut="-3.7619047164916992e+00" cType="1" res="1.6771115362644196e-02" rms="4.9736738204956055e-01" purity="5.1734399795532227e-01" nType="0">
        <Node pos="l" depth="1" NCoef="0" IVar="12" Cut="4.3091341853141785e-02" cType="1" res="4.8932296037673950e-01" rms="9.3525294214487076e-03" purity="1.0000000000000000e+00" nType="0">
          <Node pos="l" depth="2" NCoef="0" IVar="-1" Cut="0.0000000000000000e+00" cType="1" res="6.6089973552152514e-04" rms="1.2483708269428462e-04" purity="1.0000000000000000e+00" nType="-99"/>
          <Node pos="r" depth="2" NCoef="0" IVar="-1" Cut="0.0000000000000000e+00" cType="1" res="1.2464360042940825e-04" rms="1.5057904238346964e-04" purity="1.0000000000000000e+00" nType="-99"/>
        </Node>
        <Node pos="r" depth="1" NCoef="0" IVar="3" Cut="1.0714285850524902e+01" cType="1" res="-6.1683680862188339e-02" rms="4.9517738819122314e-01" purity="4.3721166253089905e-01" nType="0">
          <Node pos="l" depth="2" NCoef="0" IVar="-1" Cut="0.0000000000000000e+00" cType="1" res="-8.5308147390605882e-06" rms="4.9956735968589783e-01" purity="4.7963649034500122e-01" nType="-99"/>
          <Node pos="r" depth="2" NCoef="0" IVar="-1" Cut="0.0000000000000000e+00" cType="1" res="-2.4097778077702969e-04" rms="4.8625614726915956e-04" purity="0.0000000000000000e+00" nType="-99"/>
        </Node>
      </Node>
    </BinaryTree>
    <BinaryTree type="DecisionTree" boostWeight="1.0000000000000000e+00" itree="54">
      <Node pos="s" depth="0" NCoef="0" IVar="3" Cut="7.3809523582458496e+00" cType="1" res="-3.3560249954462051e-02" rms="4.9662506580352783e-01" purity="4.6628859639167786e-01" nType="0">
        <Node pos="l" depth="1" NCoef="0" IVar="3" Cut="-3.8210186958312988e+00" cType="1" res="2.0245475694537163e-02" rms="4.9835586547851562e-01" purity="5.2138072252273560e-01" nType="0">
          <Node pos="l" depth="2" NCoef="0" IVar="-1" Cut="0.0000000000000000e+00" cType="1" res="3.1102626235224307e-04" rms="1.0513873770833015e-02" purity="1.0000000000000000e+00" nType="-99"/>
          <Node pos="r" depth="2" NCoef="0" IVar="-1" Cut="0.0000000000000000e+00" cType="1" res="-1.0084912901220378e-05" rms="4.9941700696945190e-01" purity="4.7607249021530151e-01" nType="-99"/>
        </Node>
        <Node pos="r" depth="1" NCoef="0" IVar="7" Cut="-9.3160961914062500e+02" cType="1" res="-4.7308409214019775e-01" rms="1.2545503675937653e-01" purity="1.6256824135780334e-02" nType="0">
          <Node pos="l" depth="2" NCoef="0" IVar="-1" Cut="0.0000000000000000e+00" cType="1" res="-1.4483144332189113e-04" rms="4.2383314575999975e-04" purity="0.0000000000000000e+00" nType="-99"/>
          <Node pos="r" depth="2" NCoef="0" IVar="-1" Cut="0.0000000000000000e+00" cType="1" res="-1.8553409609012306e-04" rms="2.0760282874107361e-01" purity="4.5822449028491974e-02" nType="-99"/>
        </Node>
      </Node>
    </BinaryTree>
    <BinaryTree type="DecisionTree" boostWeight="1.0000000000000000e+00" itree="55">
      <Node pos="s" depth="0" NCoef="0" IVar="3" Cut="1.1095237731933594e+01" cType="1" res="-1.7502563074231148e-02" rms="4.9701714515686035e-01" purity="4.8262253403663635e-01" nType="0">
        <Node pos="l" depth="1" NCoef="0" IVar="3" Cut="-3.5714285373687744e+00" cType="1" res="3.9801336824893951e-02" rms="4.9677929282188416e-01" purity="5.4132324457168579e-01" nType="0">
          <Node pos="l" depth="2" NCoef="0" IVar="-1" Cut="0.0000000000000000e+00" cType="1" res="4.0171868749894202e-04" rms="1.0570066049695015e-02" purity="1.0000000000000000e+00" nType="-99"/>
          <Node pos="r" depth="2" NCoef="0" IVar="-1" Cut="0.0000000000000000e+00" cType="1" res="-6.7515097725845408e-06" rms="4.9980336427688599e-01" purity="4.8678591847419739e-01" nType="-99"/>
        </Node>
        <Node pos="r" depth="1" NCoef="0" IVar="4" Cut="3.1766536831855774e-01" cType="1" res="-4.8864084482192993e-01" rms="4.7971459571272135e-04" purity="0.0000000000000000e+00" nType="0">
          <Node pos="l" depth="2" NCoef="0" IVar="-1" Cut="0.0000000000000000e+00" cType="1" res="-2.0974948711227626e-04" rms="4.7364368219859898e-04" purity="0.0000000000000000e+00" nType="-99"/>
          <Node pos="r" depth="2" NCoef="0" IVar="-1" Cut="0.0000000000000000e+00" cType="1" res="-9.9388176749926060e-05" rms="8.9801673311740160e-05" purity="0.0000000000000000e+00" nType="-99"/>
        </Node>
      </Node>
    </BinaryTree>
    <BinaryTree type="DecisionTree" boostWeight="1.0000000000000000e+00" itree="56">
      <Node pos="s" depth="0" NCoef="0" IVar="3" Cut="9.8571424484252930e+00" cType="1" res="2.9592958744615316e-03" rms="4.9778905510902405e-01" purity="5.0277161598205566e-01" nType="0">
        <Node pos="l" depth="1" NCoef="0" IVar="8" Cut="1.3764432907104492e+01" cType="1" res="5.8629155158996582e-02" rms="4.9536350369453430e-01" purity="5.5970853567123413e-01" nType="0">
          <Node pos="l" depth="2" NCoef="0" IVar="-1" Cut="0.0000000000000000e+00" cType="1" res="1.0830861720023677e-04" rms="4.2622217535972595e-01" purity="7.5830399990081787e-01" nType="-99"/>
          <Node pos="r" depth="2" NCoef="0" IVar="-1" Cut="0.0000000000000000e+00" cType="1" res="-1.9982244339189492e-05" rms="4.9790072441101074e-01" purity="4.5422750711441040e-01" nType="-99"/>
        </Node>
        <Node pos="r" depth="1" NCoef="0" IVar="10" Cut="1.9047619104385376e+00" cType="1" res="-4.8550435900688171e-01" rms="5.6048437952995300e-02" purity="3.1907833181321621e-03" nType="0">
          <Node pos="l" depth="2" NCoef="0" IVar="-1" Cut="0.0000000000000000e+00" cType="1" res="-1.2065719056408852e-04" rms="3.1001124531030655e-02" purity="9.7437080694362521e-04" nType="-99"/>
          <Node pos="r" depth="2" NCoef="0" IVar="-1" Cut="0.0000000000000000e+00" cType="1" res="-1.7290140385739505e-04" rms="8.8426016271114349e-02" purity="7.9773385077714920e-03" nType="-99"/>
        </Node>
      </Node>
    </BinaryTree>
    <BinaryTree type="DecisionTree" boostWeight="1.0000000000000000e+00" itree="57">
      <Node pos="s" depth="0" NCoef="0" IVar="3" Cut="-3.7619047164916992e+00" cType="1" res="1.9051240757107735e-02" rms="4.9766513705253601e-01" purity="5.1950418949127197e-01" nType="0">
        <Node pos="l" depth="1" NCoef="0" IVar="12" Cut="4.3060883879661560e-02" cType="1" res="4.8839724063873291e-01" rms="9.6473228186368942e-03" purity="1.0000000000000000e+00" nType="0">
          <Node pos="l" depth="2" NCoef="0" IVar="-1" Cut="0.0000000000000000e+00" cType="1" res="1.7807030817493796e-03" rms="5.8706693380372599e-05" purity="1.0000000000000000e+00" nType="-99"/>
          <Node pos="r" depth="2" NCoef="0" IVar="-1" Cut="0.0000000000000000e+00" cType="1" res="1.2824783334508538e-04" rms="2.9474016628228128e-04" purity="1.0000000000000000e+00" nType="-99"/>
        </Node>
        <Node pos="r" depth="1" NCoef="0" IVar="3" Cut="8.4285717010498047e+00" cType="1" res="-3.8718529045581818e-02" rms="4.9768713116645813e-01" purity="4.6036198735237122e-01" nType="0">
          <Node pos="l" depth="2" NCoef="0" IVar="-1" Cut="0.0000000000000000e+00" cType="1" res="-1.5324028481700225e-06" rms="4.9996364116668701e-01" purity="4.9552488327026367e-01" nType="-99"/>
          <Node pos="r" depth="2" NCoef="0" IVar="-1" Cut="0.0000000000000000e+00" cType="1" res="-2.9726224602200091e-04" rms="9.7528316080570221e-02" purity="9.7514074295759201e-03" nType="-99"/>
        </Node>
      </Node>
    </BinaryTree>
    <BinaryTree type="DecisionTree" boostWeight="1.0000000000000000e+00" itree="58">
      <Node pos="s" depth="0" NCoef="0" IVar="3" Cut="-3.7619047164916992e+00" cType="1" res="1.7544449074193835e-03" rms="4.9782910943031311e-01" purity="5.0204086303710938e-01" nType="0">
        <Node pos="l" depth="1" NCoef="0" IVar="12" Cut="4.3085139244794846e-02" cType="1" res="4.8712900280952454e-01" rms="1.0403497144579887e-02" purity="1.0000000000000000e+00" nType="0">
          <Node pos="l" depth="2" NCoef="0" IVar="-1" Cut="0.0000000000000000e+00" cType="1" res="5.2016502013429999e-04" rms="1.7422491509933025e-04" purity="1.0000000000000000e+00" nType="-99"/>
          <Node pos="r" depth="2" NCoef="0" IVar="-1" Cut="0.0000000000000000e+00" cType="1" res="1.5385789447464049e-04" rms="1.9485790107864887e-04" purity="1.0000000000000000e+00" nType="-99"/>
        </Node>
        <Node pos="r" depth="1" NCoef="0" IVar="3" Cut="1.0714285850524902e+01" cType="1" res="-5.2306510508060455e-02" rms="4.9624899029731750e-01" purity="4.4657829403877258e-01" nType="0">
          <Node pos="l" depth="2" NCoef="0" IVar="-1" Cut="0.0000000000000000e+00" cType="1" res="-4.7427975005120970e-06" rms="4.9984803795814514e-01" purity="4.8827499151229858e-01" nType="-99"/>
          <Node pos="r" depth="2" NCoef="0" IVar="-1" Cut="0.0000000000000000e+00" cType="1" res="-1.8735614139586687e-04" rms="5.1984947640448809e-04" purity="0.0000000000000000e+00" nType="-99"/>
        </Node>
      </Node>
    </BinaryTree>
    <BinaryTree type="DecisionTree" boostWeight="1.0000000000000000e+00" itree="59">
      <Node pos="s" depth="0" NCoef="0" IVar="3" Cut="-3.7619047164916992e+00" cType="1" res="-1.8433481454849243e-02" rms="4.9725216627120972e-01" purity="4.8176300525665283e-01" nType="0">
        <Node pos="l" depth="1" NCoef="0" IVar="12" Cut="4.3061081320047379e-02" cType="1" res="4.8743453621864319e-01" rms="1.0328903794288635e-02" purity="1.0000000000000000e+00" nType="0">
          <Node pos="l" depth="2" NCoef="0" IVar="-1" Cut="0.0000000000000000e+00" cType="1" res="1.9437831360846758e-03" rms="5.9004614740842953e-05" purity="1.0000000000000000e+00" nType="-99"/>
          <Node pos="r" depth="2" NCoef="0" IVar="-1" Cut="0.0000000000000000e+00" cType="1" res="1.5792150225024670e-04" rms="1.8730104784481227e-04" purity="1.0000000000000000e+00" nType="-99"/>
        </Node>
        <Node pos="r" depth="1" NCoef="0" IVar="3" Cut="1.0714285850524902e+01" cType="1" res="-7.9916954040527344e-02" rms="4.9235770106315613e-01" purity="4.1877618432044983e-01" nType="0">
          <Node pos="l" depth="2" NCoef="0" IVar="-1" Cut="0.0000000000000000e+00" cType="1" res="-1.5482601156691089e-05" rms="4.9878621101379395e-01" purity="4.6548414230346680e-01" nType="-99"/>
          <Node pos="r" depth="2" NCoef="0" IVar="-1" Cut="0.0000000000000000e+00" cType="1" res="-1.8638221081346273e-04" rms="5.1656889263540506e-04" purity="0.0000000000000000e+00" nType="-99"/>
        </Node>
      </Node>
    </BinaryTree>
    <BinaryTree type="DecisionTree" boostWeight="1.0000000000000000e+00" itree="60">
      <Node pos="s" depth="0" NCoef="0" IVar="3" Cut="-3.7619047164916992e+00" cType="1" res="-1.6858855960890651e-03" rms="4.9753519892692566e-01" purity="4.9869015812873840e-01" nType="0">
        <Node pos="l" depth="1" NCoef="0" IVar="12" Cut="4.3097313493490219e-02" cType="1" res="4.8518314957618713e-01" rms="1.1294609867036343e-02" purity="1.0000000000000000e+00" nType="0">
          <Node pos="l" depth="2" NCoef="0" IVar="-1" Cut="0.0000000000000000e+00" cType="1" res="2.8929524705745280e-04" rms="1.1967414320679381e-04" purity="1.0000000000000000e+00" nType="-99"/>
          <Node pos="r" depth="2" NCoef="0" IVar="-1" Cut="0.0000000000000000e+00" cType="1" res="1.7790804849937558e-04" rms="1.9686916493810713e-04" purity="1.0000000000000000e+00" nType="-99"/>
        </Node>
        <Node pos="r" depth="1" NCoef="0" IVar="3" Cut="1.0714285850524902e+01" cType="1" res="-5.6328192353248596e-02" rms="4.9570113420486450e-01" purity="4.4242712855339050e-01" nType="0">
          <Node pos="l" depth="2" NCoef="0" IVar="-1" Cut="0.0000000000000000e+00" cType="1" res="-4.0974678086058702e-06" rms="4.9984064698219299e-01" purity="4.8797842860221863e-01" nType="-99"/>
          <Node pos="r" depth="2" NCoef="0" IVar="-1" Cut="0.0000000000000000e+00" cType="1" res="-1.8848992476705462e-04" rms="4.9238355131819844e-04" purity="0.0000000000000000e+00" nType="-99"/>
        </Node>
      </Node>
    </BinaryTree>
    <BinaryTree type="DecisionTree" boostWeight="1.0000000000000000e+00" itree="61">
      <Node pos="s" depth="0" NCoef="0" IVar="3" Cut="-3.7619047164916992e+00" cType="1" res="1.3238883577287197e-02" rms="4.9722361564636230e-01" purity="5.1393866539001465e-01" nType="0">
        <Node pos="l" depth="1" NCoef="0" IVar="12" Cut="4.3356768786907196e-02" cType="1" res="4.8475080728530884e-01" rms="1.1384726502001286e-02" purity="1.0000000000000000e+00" nType="0">
          <Node pos="l" depth="2" NCoef="0" IVar="-1" Cut="0.0000000000000000e+00" cType="1" res="3.0104754841886461e-04" rms="2.6698422152549028e-04" purity="1.0000000000000000e+00" nType="-99"/>
